{"biases": [[[-1.4543976440953115], [1.1346845606574882], [-0.8778658341979639], [0.5358629235553173], [-0.34310108245958215], [1.1191655303167114], [0.8433428912448045], [-1.3605121469407726], [0.47269101045338174], [-2.662541039802107], [-0.9318333775275075], [-1.1784768847178986], [0.019706053068013995], [-0.1642457626781882], [-0.09566712495673153], [-0.05913614095644418], [0.34165558791721823], [-0.29757106977536046], [-0.35468601428822605], [-0.32581359497771817], [0.23160255456051293], [0.6426144051304528], [-0.19459816032245192], [-1.3573255527834236], [-1.5565510828600204], [-1.0012151591693996], [0.5456014435227213], [-0.005476550398122324], [-0.9245481544479012], [0.14974396480296392], [-1.649917858170472], [0.8144237567317965], [-1.049409355885206], [0.40034671381381703], [-2.2331543635261912], [-1.1771078574293987], [-0.16879500555689472], [-0.48793693189087767], [-1.5115408028210888], [-0.242291871558728], [-2.4880271399990392], [0.05258116159954552], [1.1155053907436214], [-1.5649066501712712], [-0.052095534914867264], [-2.163922558993026], [1.5866279556951537], [-0.1490146013814162], [-2.2237429310688652], [-1.208417685328528], [-0.3858272176526393], [-2.1836476927501502], [0.5325473063963663], [-0.40652661656497924], [1.4268814367098306], [-1.5848945745115803], [1.377458532224979], [-2.1298988008432063], [-1.6417096275004741], [-1.9139469572937933], [-0.7915055578107264], [0.5694122252986331], [-0.5231191307650279], [-1.9395549614548047], [-0.546149618024865], [0.7196925853698111], [-0.4117498561596695], [-0.3171067550112582], [-1.3100217935606082], [-2.2284595262963753], [0.38516293708781446], [0.553917781844059], [-2.3536067789071877], [-1.1974365407258851], [-0.07331932298922574], [-1.2987153170355885], [-1.2652926645505298], [-0.7320514499357006], [-2.245508869837545], [-2.1145842429409054], [0.31934740764172054], [-0.22085927563347477], [-0.5838397111844119], [0.17657502779957818], [-1.890334989952354], [-2.5140285999686753], [-1.3970950790882442], [-2.6067552651514756], [-1.1865835721780909], [-1.6009683108270052], [0.2503829448661992], [0.16133751567715152], [1.1828186706121142], [-1.492229124870894], [-1.4941735146803332], [-1.2891016350940885], [-0.779925524759837], [0.6152781647703809], [0.14605411285648837], [-1.0252341730175663], [-1.150369336816094], [-1.5005037199500095], [-1.3316554702479861], [0.6660470158661898], [-0.06280721489979077], [-0.9765063963538261], [1.2060270957911141], [0.447291038116005], [-0.2558878297034408], [0.7700458868305674], [-2.6052346182557256], [2.6912169225070426], [-1.0241389260930005], [0.517591806649106], [-2.090701718262671], [-0.48304181395755835], [-1.396445852951496], [-1.0406150686317335], [0.09473346281199536], [-2.15413936843266], [-0.8238697226328426], [-2.1522546672091054], [-1.009851531594727], [-1.6332181289971845], [-0.3048189549272507], [0.4684470881519741], [0.580486841654181], [-1.9912592841357517], [-1.9382655592446496], [-0.5378632515648121], [-1.8095252139589988], [-2.1711954296215357], [-0.5593267055744501], [-1.2786405212874132], [-0.6145992624205672], [-0.7227105679817116], [-1.529826164590597], [-0.7749737073908315], [-0.544664997791581], [-1.073143754895349], [-0.7162241928417147], [-1.971166675197774], [-0.21510663011073528], [0.09467907041906806], [-0.15155728570503096], [0.9047018929566492], [-1.4539901964657014], [-0.8384821755977854], [-0.17330741400357408], [0.16564224532343647]], [[-0.008274371286928024], [-0.23563278940043816], [-2.2786703197213205], [0.0026530712888426216], [-1.0393160782844595], [0.03409003055326805], [-1.0956254957042784], [-2.102740574079175], [0.6163413663429609], [-1.6798914456519953]]], "sizes": [784, 150, 10], "weights": [[[0.006659406683466331, -0.03518348124022413, -0.005935284572299899, 0.029171282032223713, -0.0014680854907766594, -0.053075846350520275, 0.0045691186596824584, -0.015307156902721674, 0.06494987835896157, -0.0042139216846619355, 0.018041503286858305, -0.019734572724197683, 0.03149920241272559, -0.06312753257466591, 0.048915306612547504, -0.02798024428446703, -0.030263517713372406, -0.032967205778238015, 0.03332278234683769, -0.05249648637023097, -0.03184528486906792, -0.03384535944164244, -0.01033714175851666, -0.06199528393168794, 0.006717920868267067, -0.06275485994884945, 0.00781274740776571, 0.003997903346949045, -0.0006059360583088583, -0.041397563373391164, -0.012822049588967486, 0.03568691771134427, 0.053292257371769375, 0.02626506769592413, -0.09469478048349704, 0.06635958013245401, 0.057718846567288054, 0.007960810817419731, 0.036449129226645643, -0.029610125792564775, -0.007610928568785026, -0.011064419674389646, 0.018341498032166524, 0.04767753064287746, -0.02299456618579532, -0.020918041040768557, -0.041154235484652836, -0.03416627237561945, -0.017102804051235612, -0.006457133102224136, -0.018303200660002003, 0.07899685043566151, -0.04723330093614373, 0.03942680393646468, -0.0053920411104676, 0.0038528847375521777, 0.10392777789333014, 0.018249762260226513, 0.028557103312445403, -0.0034999193845373644, 0.003426059231693445, -0.029283210274884546, 0.044869798154805324, -0.028964458515359108, -0.013253409077508431, 0.014626532153080343, 0.019130387318923872, -0.0035508807041254014, -0.040809075643387135, 0.260658263831334, 0.11440004448656918, 0.19600548341223367, 0.1378893695926614, 0.07889722003057772, -0.04884436252761914, 0.030540026985191687, 0.024962490562369957, -0.047865581176662814, -0.051488957003618996, 0.016731886432234014, -0.08006886752688633, 0.020308649599348107, 0.018992435958915487, -0.03159943365306694, -0.04620874547208709, 0.036457619904831574, 0.036225441596234094, 0.01400705812263283, 0.08274454940243996, 0.014221640426662395, -0.02549949440663647, -0.065131296354819, -0.05041803574031934, -0.1146932351283257, -0.2353150291740484, -0.3370320132473998, -0.03046666618283127, 0.05461652509725276, -0.19574003897514428, -0.05611205640174021, 0.19186858276846083, 0.09768956784300742, -0.035830089247840737, 0.05192821444477166, -0.07464103628002386, -0.028123099281831113, 0.07942503600287891, 0.003526709703779674, -0.04065641969555296, 0.012735100007418832, 0.02688982741200164, 0.03508705008835356, -0.0012540357253439023, -0.037354728583756, -0.0057470372998133425, 0.004761084406614769, 0.00798594654627301, 0.05525492659404993, -0.08486726373600764, -0.23159960092632204, -0.24619870236241978, -0.2970518178738939, -0.2736031270850599, -0.2530789133422165, -0.05626786604252395, -0.1980654812507486, -0.1438244666317427, -0.14589934587155892, -0.006214364281767414, -0.044311635559103314, -0.08727047688644377, 0.039642195965545864, -0.02638122743513658, 0.020387095792000664, -0.1396595485297024, -0.05095847505443144, -0.06595876560050452, 0.016848782438357805, 0.03686634559646702, -0.012656551812692365, 0.021249704471654952, -0.02064861453163121, 0.00961814102182209, 0.13348091326768652, 0.030127095316668278, 0.23549541619190612, 0.19637205284228823, -0.16581991846717584, 0.007514241431385026, 0.10394932367064419, 0.03037748525428823, -0.06123513727434243, -0.17505477071366224, -0.023617235011974824, 0.09732766794652484, 0.02895035054001168, 0.04569197072667927, -0.19217266246603712, -0.13266205131887368, -0.27721192809677314, -0.18655514247663113, 0.006224262639336889, -0.12514119773312016, 0.007581003853406843, 0.025599282514762244, 0.04697221538946166, 0.02236963456398997, 0.034076686604858394, -0.001112035736232192, 0.01744715744886324, -0.02659927209282564, -0.06254786723951522, -0.012657680901876247, 0.2526455040391845, 0.143312230984883, -0.22907432848333253, -0.08211474803604399, 0.2584386751745922, 0.29881785788568077, 0.25256558831920417, 0.3201057265278024, 0.14251315258602967, -0.06486547501964209, -0.13813805820958802, -0.47620534446453555, -0.017803871192755165, -0.35391910857935965, -0.30140694001961854, -0.12314388147736109, 0.08564837726492322, -0.15699460746501315, -0.027922853256580383, 0.05128065029763317, 0.04816557197576735, 0.05857963230727184, 0.008624844480275246, 0.08473585202198701, 0.021341589455263682, -0.04006173216110918, -0.023970592495441263, 0.0015711957349777764, 0.08451037009276144, -0.0612126645268711, -0.03764652726192053, 0.010781489671543852, 0.5045578468185664, -0.20299910973889398, -0.03931232917853041, 0.0075007515081250906, -0.558547064454073, -0.21508699046091304, -0.20904043357517857, -0.2348199016106156, 0.1695216179098907, 0.009345857857426922, -0.28560772347382796, 0.13635991508897477, 0.20926947065328982, 0.23842521640532463, 0.15997192963671392, 0.22199596672043007, 0.0633351125780442, 0.07611155087978118, 0.025319174887241707, 0.010867433005429857, 0.002906450384223778, 0.040240345908397195, 0.06655515328887252, 0.03016524482152829, 0.053445523673921476, -0.032592708476882656, 0.272670643302294, 0.13913465339516198, 0.30220829624055856, 0.3703833280678502, 0.359263747861582, -0.07412589065451115, -0.5736031820976677, 0.12119948730192054, 0.01132908911763609, -0.32782065457588794, 0.06760989746660166, -0.3852119660929455, -0.04609288642661191, 0.29662819248351446, 0.020337617250486276, 0.3246282368151878, 0.438799423088918, 0.26778427050778164, 0.17606900250577995, 0.016659130492561475, 0.008250620566810389, -0.056507223058333764, 0.007971448630104041, 0.027463612758238373, 0.1096145966726367, 0.30984758359314934, 0.2974940396238411, 0.20160214765286139, 0.5527526762550772, 0.4759310027376751, 0.16062879401686456, 0.5066952063631841, 0.16984506297411125, -0.10006424538391526, 0.34647239267646457, 0.61480194209428, 0.3539036882336199, -0.17660507659111974, 0.10858075849188575, 0.07585939939101517, 0.1633821605972711, 0.19613172701856077, 0.11999425673941269, 0.19943592324768722, 0.26402784749735847, 0.14401609450275052, 0.08171730948786156, -0.0363978702498108, 0.03313796730795163, -0.08983258222665304, -0.013356495083145384, 0.0788711096019406, 0.01224166608407832, 0.13814256967326513, 0.2307383579094669, 0.23029382006736093, 0.3109407445866371, 0.26463704959525336, -0.03459301821332282, 0.6190183050390717, 0.3574037651225528, 0.6002629432504205, 1.3411705441054849, 0.6174359818448749, 0.25321037495444315, -0.16066243081660936, 0.1976976593776193, 0.3324070248018398, 0.31389510688213995, 0.17255121076159038, 0.31575302944769534, -0.2955169202705202, -0.06003613959444719, -0.022145807089616606, -0.004033899863172855, 0.02439990276506069, 0.014255579126258869, 0.06854997179485445, 0.0022959525037403042, 0.018315784545382276, -0.0015673753570572327, 0.08534927888961417, 0.22625170687834933, 0.13383053646971008, 0.2918887809770182, -0.29923183166884076, 0.019229235844961428, 0.48010835939976065, 0.652953346644846, 0.2446926842085513, -0.34191450416021757, -0.5301793944695592, -0.08358632182750163, 0.02429392436497297, -0.3767535222072074, 0.018090580523392047, 0.032326991708060665, -0.05835616242744683, 0.09631248129095835, -0.4778958703049446, -0.3306856265381129, -0.28072141456442945, -0.03149427877637169, -0.11061275598111323, 0.018500475350242136, 0.010721759139841655, 0.044691165187679245, 0.08357704608263455, 0.022314063376396416, -0.01148745795614845, 0.07804197843167801, 0.01943714165508365, 0.4237131084362905, 0.034012803654737106, 0.04178421397648535, 0.050865187445872484, -0.06971938644124608, -0.1801957863731832, -0.8892084943896742, -0.9049753524264689, -0.26036776576605775, -0.4265501758817367, -0.6042110059797096, -0.04705730538180449, -0.3241280038319972, -0.33883250992539743, -0.22503162654344694, -0.35064876799934036, -0.5297678590151794, -0.342288861056404, -0.01998529336089947, -0.03993970493455748, 0.011731968032508009, -0.030963264949521452, -0.05227318901389071, 0.026774639759756164, -0.0837851948291044, -0.3181603897729283, 0.07246381020477953, 0.04132950145178934, -0.07707041246297754, 0.07060058671225017, 0.19181690386240424, -0.461040142148143, -0.6041454810271977, -1.129824132656401, -1.190688151893216, -0.5407796045399321, -0.2506441933690427, -0.17108340281641762, -0.38524198162424844, -0.40763968344659146, -0.7026555298352619, -0.11900342474398601, -0.20230793721419119, -0.3701315594304439, -0.3814748920239081, -0.2411814499607378, -0.06324266941971322, -0.034938566724305994, 0.018445935652938356, 0.010088633051118606, 0.03769713845073196, 0.015938378099093195, 0.0027663629600874176, -0.2542768323058409, -0.23162576464589846, -0.2600379432394734, -0.28011794735997403, 0.3698556703175378, -0.1528533389124798, -0.6128299132139771, -1.4347340642935922, -1.1192869965743555, -0.35522504971594776, 0.21320013577300237, 0.06289077548545437, 0.03096811797820507, -0.45663344621450225, -0.1877794629343932, 0.03813171928950268, -0.06172567086336874, -0.20858125691281085, -0.27345000973704264, -0.16066735861387713, -0.34542344743427394, -0.20918357130603918, 0.026790465189874036, -0.0387382805929978, 0.0786757568932552, -0.04735934352723959, 0.006722920563784741, -0.041247187041442084, -0.191342367614105, -0.5162016161604024, -0.4203975989618519, -0.38524683858161, -0.4230264555858953, -0.12508660210320882, -0.8003226494796601, -1.072035446566762, -0.39524371014470283, 0.13136300550295338, 0.416711519455246, 0.0912152456702545, -0.30626249950168677, -0.27289604435268555, -0.043191583789139884, -0.09300487433536771, 0.0671141213887606, -0.09531703065555004, -0.08135633607441721, -0.20112209157909, -0.2827049363039334, -0.08340751555767166, 0.04183294819562432, -0.004387345887072433, -0.00768466397834745, 0.016154194643528467, 0.024653377355312457, -0.06929739000594015, -0.3521485212162266, -0.5860195550043207, -0.6657234965952243, -0.6267229467619558, -0.32066881431300515, 0.024520918461652073, -0.5062220620400502, -0.8778089336133309, -0.397753621757767, 0.24272669829244284, 0.4704062725062983, 0.3451692519979222, -0.08390633300332906, -0.2786637823556213, -0.23163210576671048, -0.1270049821715282, -0.23785023941421882, 0.06971576275897101, -0.11608537879193152, -0.2565609293841698, -0.22304380603958363, -0.06057205394280659, -0.04037069705790788, 0.04883316274207513, -0.03936536652538124, -0.07531978961390386, -0.018110049998282658, -0.07917129023659439, -0.3839297689300391, -0.7343165317969497, -0.5964341839946878, -0.7153135814370614, -0.2867916523060521, -0.1099131285806915, -0.1774434997480644, -0.6294496043676017, -0.4880679286908849, 0.2052231020700404, 0.6068868907108447, 0.7261819849209317, 0.13870657966627237, -0.09828698826364156, -0.08471825464519929, -0.107765367165613, -0.09154201451307291, 0.03373011278921935, -0.04125957423812761, -0.20204735236303673, -0.17708486501087442, -0.07324115038378212, -0.015486991143939696, 0.00825060582093761, -0.01750973044826868, -0.00022569036850068723, 0.004014378974512208, -0.031159215058250624, -0.1446974334246885, -0.5317452828521331, -0.4699507177431171, -0.34705680130360705, 0.107675771097091, 0.103267347995108, -0.20772882310463966, -0.5687776954416042, -0.3005295152484597, -0.10107292342999558, 0.4523527064495662, 0.6927154359987456, 0.305374091364951, 0.17493331054931743, -0.07215023963893175, -0.0867727004965232, 0.11803902234571395, 0.2611548763451567, -0.13746202239838998, -0.18865053703217105, -0.09191840704832732, -0.06292667717875006, 0.03987385872339242, 0.05377401939202874, 0.05260585351170642, -0.004519954796992373, -0.023697945954386936, -0.09702450998947355, -0.0883302399461767, -0.3484870554219449, -0.21368904485888698, -0.07245929648871764, 0.20230461872903097, 0.01340976140218679, -0.26299193997975234, -0.1888825969047053, -0.477993248525253, -0.029460524381152087, 0.7061863638857445, 0.32474264051329854, 0.36667245573901847, -0.033706105781034675, -0.2689258453611117, 0.015191903220563194, 0.35123707063916343, 0.1702559128465421, -0.06266399013219062, -0.10981905307700038, -0.049090019102135236, 0.015661943762616017, -0.023541111415325954, -0.04200902537187094, 0.10323136896249596, -0.05471356688255378, 0.002688088525320519, -0.06592558384913544, -0.10162333134737396, -0.20926275022628066, 0.023212006821504816, 0.1805060598623098, 0.19656022377543012, -0.05278865968727116, -0.2513776156169664, -0.3061671322453109, 0.08611950067517568, 0.20480292501047123, 0.42947284674312153, 0.2537160616451298, -0.1671006371853067, -0.24086164754071882, 0.2295688109260821, 0.23204188637417406, 0.24526002094605812, 0.17719273065292224, 0.09801185774711396, -0.06725755840993192, -0.02635120776469677, -0.09725496377406795, 0.03779563923968568, -0.02654443891005558, 0.04667552245240455, -0.024604187089518496, 0.03589856933630662, 0.026473763989906945, 0.025323623803206408, 0.1520566120157727, 0.1774093819266617, -0.08785477339860541, 0.004006135452865166, 0.018394752108292257, 0.15866286198487917, -0.2857011401159786, -0.0037882488426498953, 0.10946459880404147, 0.3027059837169104, 0.2657874491916152, 0.4038607352824351, 0.07775703187505957, 0.35177765850147397, -0.021375357644994843, 0.22467356335297184, 0.054952920371521004, -0.13147582228207433, 0.04243764581436416, 0.010753307155246665, -0.04683701714964858, -0.01322316085313835, 0.00811963443937513, -0.03411445718383051, 0.07085694939590327, 0.05431364241631142, -0.012999363256107697, 0.1732705240635283, 0.32494896567785103, 0.3370266828625639, -0.1872492943362231, -0.2115304456314087, 0.21108535353706048, -0.114193684936565, -0.0981133550618737, 0.11820016472207427, -0.0240576479726046, 0.28755973805006707, 0.3642064310353383, 0.010539351075604822, 0.2870997282662664, 0.31272995127920333, 0.06255312570945366, 0.03361971751767773, -0.10956952833439475, -0.19847109583330974, -0.08991275477228415, 0.056685476024547085, -0.005496160674801019, 0.013782081705912235, -0.030462435002258016, 0.019684525023000433, 0.0067517927687085295, -0.04660511204676625, -0.01137548081446775, 0.18074122116708233, 0.33303265802799176, 0.34206704311575337, 0.07462865744205927, -0.279349603185788, 0.1838413163859449, -0.2444421913454473, -0.0562096330686119, 0.06187366642132564, -0.20535604259372753, 0.0287740029113469, 0.1465760815932896, 0.10717307720942162, 0.29267248626422887, 0.13844353707671145, 0.04026951276707885, 0.010685665052841018, -0.19835462339955798, -0.26692659570638616, -0.0940676057460616, -0.032099985196681315, 0.015935885157641903, -0.004906482769938708, -0.00745627376700324, 0.023574080812569405, 0.019792507602152946, -0.03692283101193792, 0.0003554129666866115, 0.13735461979535366, 0.2794468591100191, 0.4016672511287932, 0.21511834648589423, 0.2480608789015145, 0.160446496118239, 0.2698444320616733, 0.36714831245624185, 0.14048269745811706, 0.06788122479138471, 0.2416272398484548, 0.3231312839363685, 0.033015463902344916, 0.36097596843999435, 0.11931325816185355, 0.23397749472212814, 0.004248435631577322, 0.02519320977377676, -0.196987454146437, -0.12159499913724468, 0.036107506660072994, 0.018876326859576374, -0.023730811719668236, -0.02388160129813186, 0.008336305195783832, 0.003967891257588096, -0.03917480346283797, 0.05797691935487535, 0.12016475107339626, 0.11949419927458284, 0.07548906964631666, 0.09119331049285735, 0.14696428529902708, 0.1408312525766607, -0.048038480608964984, 0.04020553383774484, 0.18848200898203618, -0.15651852552916498, -0.14446191412950377, -0.19427454818523415, -0.8074577311009516, -0.25953788844125053, -0.16990957467953935, 0.05855995528353887, -0.013577608429100533, 0.0426050950390017, 0.03676792860673265, -0.023598387497641295, -0.0023578192577046126, 0.038157657403475445, -0.005296331989810162, -0.013686237442349022, 0.010855294829575353, -0.006831924614129464, -0.018260081557858916, 0.05980352913536963, 0.008644547853091492, -0.016517733714371253, 0.15477711611755837, -0.02120203464555724, -0.06438816634371174, 0.012276849135272671, -0.060964027594867506, 0.15629866108624463, -0.041983680302941334, -0.2330388293914984, -0.5696904687085704, -0.24990798712591522, -0.15635049952780297, -0.2399688523528825, -0.08534078831962348, 0.23488091101368733, -0.07358038889763098, -0.015979768610812947, 0.003107783395259075, -0.05663514199725498, 0.005797645231593127, -0.03864794591864883, -0.02038573657163456, -0.004648970721016639, 0.02960916999312341, 0.08663547982306714, -0.05881161485030988, 0.0490924227996895, -0.01579355479518609, 0.047352389490403365, 0.05449521575557009, -0.019385605419795813, 0.0665882311092263, -0.004276713462882472, -0.07167276738549357, -0.05351438662692866, -0.08684353803205666, -0.004657634541479917, -0.015041147075491965, -0.10818907013069554, -0.026681679904577087, 0.008888576736227501, -0.05818580670336455, 0.009590907829736477, -0.031059789671269215, -0.06686102986713797, 0.07791929460360941, -0.00029473061171709575, 0.023329570507402222, 0.01367278485749103, 0.015752811462397202, 0.0088860217024533], [-0.03055865791367754, -0.023552392902615658, -0.01601341892200863, -0.08077686426557441, -0.022091479178250606, -0.03884885025896152, -0.023847415954856864, 0.017777630743951806, 0.019507573764199843, -0.016305956386310334, -0.03573388130772803, 0.042032135090201726, -0.024681055859062582, 0.016916245941404787, -0.06145223258679062, 0.011795100180777179, -0.089111035613181, 0.0313236689843853, -0.013439752334435279, 0.03263273389617834, 0.0045936001786655925, -0.0024857271642048586, 0.008862759808252104, 0.016991920541477825, 0.015366506634023351, 0.01926101790577108, 0.010402153136809436, -0.0261888425307879, -0.02849529753327066, -0.06850771607395098, 0.05043535805934891, 0.016494401853283294, 0.024349759720732837, -0.006353042907081094, 0.0035906426359329498, -0.044563049448628864, 0.009807502329785514, -0.007507229717952449, -0.01768763210435905, -0.06325194186653149, 0.01886666242215408, 0.027072035097999485, -0.007259864263116852, 0.01706375723414157, 0.019984276620484527, 0.01917639503185323, -0.02459569186253788, 0.025945361327971993, -0.0049988184940373565, 0.03589671442316232, 0.015213576265126408, -0.012179934002858392, -0.0016834257625689183, 0.020080760208434734, 0.01360751069633336, 0.013680465099596525, -0.020521460776581343, 0.011899491375059506, -0.021323428289360687, 0.053166476271347095, -0.02864890015086137, -0.004980840006935211, -0.037232574202126716, 0.008793389385322594, 0.02877388674768854, -0.037671768496255184, -0.03176877888638188, -0.014996312991970009, 0.0012348324746480359, -0.008865667766487067, -0.0072190268877600034, -0.10646764618088626, 0.014070476154230991, -0.08366644148075511, 0.009417389975879466, 0.05615992916147302, -0.02003494084801978, -0.015191875100065767, -0.011203613804108737, -0.05595553992961367, 0.07423563804726965, 0.08245234959483405, -0.015911467569394166, -0.0102479915119062, -0.05449342941744382, -0.04084192451791956, -0.02830831661200249, 0.010157445149188496, -0.002205056149953612, -0.018384727916706835, 0.03288204321154753, 0.06626057455205436, 0.004136435742815588, -0.09433576382451417, -0.1499189093573394, 0.03850128047217894, 0.0782831620703764, -0.013790046244296772, -0.013458427935527846, -0.09073475203779015, -0.15647277451521616, -0.03625666682870917, -0.04467924880156791, -0.07912539064243038, 0.04653995133086334, -0.04869199365918779, -0.07527447874420215, -0.06454864104253186, -0.01610281222926306, -0.058813476267799446, -0.025975640031935872, 0.020254436951099627, 0.024595866445332373, -0.04289877111813294, -0.04688325763274769, 0.05955428350318532, 0.025012915667094515, -0.020965559456943735, -0.07807537301536314, -0.03133066626823147, -0.17264361440628403, -0.17989758709348466, -0.1931535287674454, -0.12303689624711425, -0.05250187734899437, -0.10257498985772051, -0.05554330981038659, -0.14168359656786544, -0.22728350158058672, -0.16356383414955547, -0.11976644047518273, -0.06612819615348035, -0.08700030961734247, -0.09045783541240532, -0.1319516206493416, -0.033636972793231926, 0.008052767020151874, -0.02613385301215875, 0.016431792425697533, -0.12811647093346096, -0.03573569670583493, 0.008852494845727019, 0.051671727221804555, 0.014005991160455778, 0.11503419235795764, -0.015664259482977762, -0.09847363753605025, -0.1793981248919349, -0.1905602970189347, -0.19837160971010967, -0.2701046229893786, -0.04767791520659922, 0.09953103739828778, 0.1843587586540872, -0.02025291353693763, -0.28773101339005114, -0.3131356545354694, -0.1683209720717188, -0.12988667135286197, -0.4427901370850486, -0.40104648184888264, -0.18788337424853932, -0.14040985133138115, -0.09977877575644922, -0.19555184846174883, -0.16858156371737443, 0.02174987316244244, -0.09030644607754479, -0.015922358851143355, 0.018626620591926095, 0.050868396597832426, 0.02425030732790508, -0.05274048248671053, -0.0050243552161798825, -0.24561554439258104, -0.4166588240591014, -0.5010658681093066, -0.5541560724723081, -0.3936860057709207, -0.042610334752770235, -0.0379523312050583, 0.06958032979627007, 0.022401930889057103, -0.4036994600821557, -0.4066351167213019, -0.21383030433940795, -0.12146944780315198, -0.3524791968788028, -0.5151192300934329, -0.19966602235307682, -0.0024163816296441233, -0.2444116035608941, -0.2748039366751697, -0.1821745992044593, 0.025719199358092557, 0.010555521397269046, 0.04324916372907966, -0.05270390465218831, 0.052398151611690785, 0.05834188181734847, 0.020311284116563383, -0.1418502730270766, -0.10864214698012176, -0.15225289497589709, -0.5319110083352382, -0.5759788349607546, -0.5314259570947181, -0.5694305846753679, -0.5108520426162945, -0.6718868570460668, -0.42270919111864225, -0.6965264163064353, -0.3762244060548799, -0.39223974653143373, -0.23817756002395876, -0.4020899300052343, -0.3754477240873415, -0.30871591349919947, 0.011094952268234492, 0.04248441393194027, -0.20670276448276306, -0.20534071610650495, -0.05144003588960524, 0.029424481263417505, 0.007626037125513713, 0.07251861513106142, -0.03392353415900673, -0.07147536119469833, 0.012956718537713813, -0.09683992473009435, -0.0008044130921280373, -0.16740754711784933, -0.44365806306986394, -0.5188618148044285, -0.5278687452234574, -0.5530428265331206, -0.535396815460684, -0.7334962042229929, -0.640593766776807, -0.571948902303193, -0.3017254546001219, -0.07407648145900304, -0.024349919777911972, -0.2661539292406521, -0.0929217616512387, -0.004262678584265538, 0.17957096317792853, 0.360113175247274, 0.10826115546856878, -0.11674758668754925, -0.020851623123992174, 0.0537610254057377, -0.03155651817409401, 0.00245807238817441, 0.03016259987195425, -0.00961787270190316, 0.08742806734422272, 0.0533110374796561, 0.15537023276829479, -0.0533927093105612, -0.20697074125218418, -0.4326175967042475, -0.5312614556446111, -0.44549902228275023, -0.4129994109243684, -0.47376900642535635, -0.3259477653915491, -0.19442934303615236, 0.09411263180142378, 0.23771597486255985, 0.26379312332788685, -0.18095608209263503, -0.17641861475226536, 0.16337685958520215, 0.34916138428062055, 0.21348761967367288, 0.18953224739806357, 0.06261685427920446, 0.02715454642533227, -0.004756360389892848, 0.08394856805724499, -0.030954686380077985, -0.029339224995775414, 0.15004032501585338, 0.051963109642628444, 0.0029080206504547707, 0.3001106952815847, 0.047359175019690954, -0.04654237356145226, 0.033851143232913536, -0.010444360589709746, 0.05431468099187575, 0.0578864121981999, 0.47514257969007273, 0.3214962650564494, 0.4378655526493453, 0.38114738301742646, 0.27360827729434656, 0.3477284730783158, 0.23145314473863776, 0.39832519135651395, 0.31501831485049697, 0.3687346913558097, 0.338205753876655, 0.15356209253692932, 0.102865929434822, -0.0031176543754919167, 0.03169563436748061, 0.01168267213741599, -0.04173536880112189, 0.051648781200560316, 0.20656525746396512, 0.19627041769951076, 0.13308431672749788, 0.23625058432975593, 0.21500143584902387, 0.07711198446236589, 0.23126569320850215, 0.23254844455668328, 0.5074020210498951, 0.3712901823683585, 0.7222964778188085, 0.7279943916362416, 0.4702920653846481, -0.22236002285105014, 0.21753785077345042, 0.2510302220320753, 0.3524970722333263, 0.5906736068321674, 0.4294426680039515, 0.2721702633832485, 0.18735697436109322, 0.07784550316924098, 0.0334688840100909, 0.026392282880032987, 0.03322919677219202, 0.03016385079304494, 0.007784529537262479, -0.0011609578681133466, 0.06380203385484316, 0.11543440290509646, 0.24720373452741512, 0.13714335873892938, 0.2609760029031564, 0.30838918567191087, 0.3316533811007495, 0.29944573320969087, 0.4934409683812898, 0.3352622757846145, 0.2687276466115418, 0.20275343476988114, -0.10722075410717158, -0.08973084116910512, 0.3327273220788627, 0.12386588947049611, 0.13448012319404848, 0.027670334778691276, 0.09991283591109396, 0.2243586184824157, -0.010857319776256348, -0.005584418365854178, -0.01230186434025209, 0.07661183295250729, 0.02758007539393528, 0.05391722431500426, 0.016408228794772436, 0.09389451992351201, -0.02861495235437798, 0.1996457659609698, 0.25000775010442616, 0.1626014595907473, -0.08157654483095232, -0.22729641469660253, -0.13186225198960194, 0.06111797907539612, 0.14822179513887937, -0.12759977901754804, -0.24558796322624077, 0.049231893295661085, -0.39282568530854145, -0.12141200482336517, -0.06646073808002591, -0.03669445824703321, -0.1925527390935574, 0.06456819327585309, 0.17867408368959292, 0.268110830992536, 0.0013221800470908844, 0.08512960657926245, 0.1283073505160242, -0.01184317950275564, 0.028597861219207158, -0.005974789923755979, -0.018781549293444524, -0.01380610537770098, 0.0667088485790778, -0.07504333909720544, 0.16161551168135557, -0.02208450379465255, -0.39074316025692396, -0.4805723120824185, -0.2987125657542105, 0.0825693344197229, 0.027473486615509014, -0.08448661910159246, -0.3487395277113921, -0.293119513164106, -0.3509677518761771, -0.3691612883379082, -0.36203297661430056, -0.3761341184010124, -0.182110285686654, 0.04735093273657093, 0.14689922232487276, 0.28676235000074535, 0.09084757614100175, 0.08717008083301704, 0.04788986959919921, 0.024902839474315607, 0.040667014474337106, -0.002141647256557559, 0.005208157568972001, -0.017794370105609917, -0.009121907328750905, -0.08434076971899206, 0.09498465754111074, 0.10635666587442316, -0.12722607286247503, -0.35679830561599474, -0.04921626064923821, 0.1656371872323044, -0.18363395309994063, -0.25083260443781413, -0.3143064086652283, -0.44951650767108636, -0.4344711492054664, -0.39763733894224323, -0.43277466478304627, -0.18584752385374878, 0.021315615820323264, 0.18181336599762918, 0.09788262425481539, 0.16103950261857602, 0.12171003548034609, 0.12979879101121175, -0.010668872332531328, -0.010311760232969652, 0.020633629215959338, -0.016899116564149445, -0.01419126086855578, 0.031175146561074684, 0.00845139291360336, 0.03998359309814744, 0.16380376538964284, -0.10019745073687557, -0.2657534404722197, -0.1829409078606225, -0.036683985452757695, -0.1322642700297275, -0.16877108768768453, -0.07993383684973386, -0.19635783873828555, 0.10112336783372584, 0.06355624714239608, -0.10766284714343034, -0.21863902735767468, 0.08270192637999381, 0.17050867847666526, 0.17642508793638545, 0.23553937514946013, 0.18815013789319165, 0.07793801025903012, 0.07303395602551513, -0.08215668260189393, -0.021318364646425583, 0.0317397179792718, -0.01133221302915788, 0.013812487894025846, 0.05580781597949314, -9.318931700220394e-05, -0.058834710978203565, 0.1272971145001991, -0.07267419520824527, -0.1704828968570335, 0.04737522282083415, 0.10754856899415416, 0.09999406879861267, -0.09798630239487476, -0.10457993206601833, 0.11138870928862793, 0.06172184640580868, 0.4088326883035876, -0.026664317259178453, -0.1502431974557888, -0.09526375347739935, -0.06347334986159238, 0.05080301429106309, -0.00668838192290577, 0.06337215996183047, 0.08995984775231437, -0.06909028697253111, 0.044486779313406465, -0.020663335060810115, -0.020700097043957727, 0.02464303716800396, 0.032784418051028656, -0.0038227952077853015, -0.09257189812101467, -0.10337405061881404, -0.07996189550047912, -0.08278635845673132, -0.07070572467208941, 0.15289492721834777, -0.0037254992755033156, -0.06035692947576063, -0.013361967975817691, -0.05995798538872225, 0.28870887413010593, 0.10243225378063958, 0.11738571349560158, -0.12411921570175642, -0.17509057760543476, -0.23362716881155585, -0.1465002852093856, -0.13367862633059283, -0.12191865128690985, -0.029489452141565006, 0.06860878402080475, 0.018474352148902494, 0.057109010275424726, 0.045630383226375575, 0.05724616784528246, 0.00935160046161525, 0.01479264137595801, 0.025563208334415638, -0.10816465949169084, -0.07140529409443769, -0.03540411667204686, -0.144226457115361, -0.053572223511453056, 0.1183055511098349, -0.04561714188168846, -0.025156433984832246, -0.07084551354469755, -0.028834099673871575, 0.11709785982986894, -0.272146420952679, -0.3862252836148168, -0.40680028847457556, -0.0456953437292448, -0.11771995461547496, -0.12438016117097118, -0.21315719020130205, -0.18713660911052885, -0.198286868366237, -0.08651201234326508, 0.0046292328212905005, 0.01807667444996043, 0.011035815970717216, 0.024268341837692404, -0.058107332614704583, 0.00046967257749298347, 0.030094617974549178, -0.04225684288369277, -0.058481450898175406, 0.012271108251196726, -0.07457064635343813, -0.17116296874632358, 0.13938363798503361, 0.13619307814700987, 0.01020408631305466, -0.12546658283314402, -0.207974448204062, -0.10398699147538062, -0.49947360503614396, -0.5228328379011435, -0.3349883250225218, 0.055997425520562576, -0.1983098142996075, -0.24302904581582854, -0.44621668985678925, -0.2619034922912185, -0.1346664552299304, -0.0331143986933811, -0.03949300780355342, -0.023787846396394842, -0.04982104421034615, -0.02943053929236085, 0.032938253802911724, -0.01098792781596579, 0.0008156518278795316, -0.06501940243894472, -0.0789767851993727, -0.011966156777076862, 0.10083000473829258, -0.004759079161761649, -0.003484387480673159, -0.02270062379354461, -0.24802681741940585, -0.24167911519319843, -0.20969091056611244, -0.2709438661711863, -0.4310189068059421, -0.4091394495025024, -0.2711774141273954, -0.039735234575670596, -0.0837062449173256, -0.27937229078626946, -0.28272194420331104, -0.24183468463604085, -0.23552816601567922, -0.1470515133800803, -0.0401266431120923, -0.013889694331394892, 0.04377996490285854, 0.061968557477323175, 0.040995156694029394, -0.05574587191797587, -0.0016582166173658968, -0.09522784924192507, 0.037492989323918605, 0.2116855159642536, 0.12683990812512733, 0.0730766001786472, -0.08825284921015376, -0.17636603357517014, -0.3491290150944267, -0.4778005681378948, -0.019501870836233323, 0.01655335123447874, -0.06643775088300503, -0.10021260775340357, -0.25512537997203, 0.017104678667321474, 0.06848546234551481, -0.16908157612544925, -0.25541837850665505, -0.2252592968373228, -0.24445108580442146, -0.10874302920991748, -0.028923251726620608, 0.010825096045724491, -0.04985636580970956, 0.06366134022763333, -0.053842405182607044, 0.003206759589909282, -0.035840764892611815, -0.012966346502980456, 0.13549552924462677, 0.22918095851083206, 0.20379456701180013, 0.07340339470179982, -0.17603181137526883, -0.258230399228383, -0.36359128335043284, -0.28760046343087925, -0.03771382020955372, -0.05111746085770356, 0.007642482787151629, 0.08602064677754008, 0.02913828898097149, 0.16804237246783107, 0.02508379581377534, -0.15144269828690202, -0.2552686767931418, -0.26539193224132124, -0.19781913508752572, -0.08888912844078767, -0.0385389330513445, -0.00030242809267673915, -0.07223802062147572, 0.019429729524940657, 0.024029076375414855, 6.127848104534579e-05, -0.032421486965164226, -0.02171777949683599, 0.16206510921184833, 0.2234093118655273, 0.12570535785607545, -0.08412629291545344, -0.14125413522307986, -0.19880123021867827, 0.033396039950475, 0.08725831140781103, -0.017826717264883836, 0.01395048719543181, 0.11726535204917769, -0.010050895963012726, 0.07156835851966825, 0.1911413970283395, -0.15703822160536465, -0.13885819050894743, -0.16888075614917708, -0.2758428796208355, -0.12477740841348749, -0.06628808792409305, 0.030415408202560713, -0.02602077528238236, -0.05151214889695516, 0.058746857895125335, -0.0403516566732811, 0.020770098956417023, -0.016584062546591165, 0.07671989790999764, 0.08426213491410178, 0.05076014095660109, -0.13606289174969463, -0.04356168141995459, -0.06037206960293393, -0.11814551346558035, 0.1079246018428109, 0.15023972286223042, 0.21812522376604238, 0.008950766914933544, 0.3076317063880806, 0.044500892222107506, 0.0752735538256633, -0.019069838300704665, -0.1414013108180195, 0.041782199334664344, -0.023718030926140974, -0.09008080778100325, -0.009443922374060257, -0.04124840020174339, 0.013864745984222947, 0.021686796278596085, -0.044728714851354275, 0.060498037774310794, -0.035242806238054016, 0.006193939647656438, -0.027434599848767446, 0.09103198377569731, -0.027248264636108452, 0.033376526969350395, -0.05422228635474699, 0.04186902643866801, 0.14300902609700394, 0.10765194821787308, 0.07407792092976821, -0.04224898662467527, 0.2512573635661303, 0.2991313557360257, 0.09606836381379671, -0.07166928489954419, 0.1137257838591519, -0.024138439877641235, -0.04402907572218417, 0.05666316820393769, 0.06092600374731295, -0.06371983039493186, 0.033967538755449125, -0.038278383592049534, 0.021899026698466387, 0.0005818828527918468, -0.040262229635266975, 0.009337761615855011, 0.007113821555863682, 0.03424027331999475, -0.04710351046303594, -0.024361627094363382, -0.042955745201247834, -0.05092947145428692, 0.0035725329261869186, 0.015407287963908835, -0.008774843282822567, 0.061640558490983224, -0.04497471532540464, -2.5705355118948213e-05, -0.02019439377068642, 0.08076180633605345, 0.0032540303861893047, -0.09687746284416515, -7.784076588087723e-05, 0.002475787623733737, -0.015307231726744988, -0.05071339685396572, 0.022387050387456465, 0.06255456385390745, -0.03574217643233879, -0.03158949701687612, -0.03047910084454373, 0.0005124822902420506, 0.04466008816861441, -0.03234049822429119], [0.02151565670139973, 0.015856486798208103, 0.014288350152983699, 0.07820152674855138, -0.017144565503202234, -0.027973513482098332, -0.02847303732587658, 0.06517812875084154, -0.07772003166834959, 0.008943207549388, 0.0771552627653511, 0.047631538753024456, -0.05531970808149784, -0.028057845290227843, 0.04377007501664734, 0.033706138165493185, 0.0083923324576886, -0.009208252870701816, 0.0610083656474718, 0.022122759987504407, -0.08090089199723606, -0.009449920986088394, 0.018526181780564286, -0.03422981034517692, -0.002788355840893732, -0.017988423171162667, 0.0001594131987728635, -0.05913655888457649, -0.038556060684694846, -0.016689854966832163, -0.01753829335145436, -0.010280031500854292, 0.03150436909379093, 0.001535903290799128, 0.006784815666635038, 0.010682744537498538, -0.005725745474992904, 0.003969072210859801, 0.09592164038655604, 0.007452086634149835, -0.0315296160460217, -0.042385560260710484, -0.025087098096534605, -0.012111821313846916, -0.05650332091360866, 0.035760009862531784, 0.05762105786945596, -0.0030545339762105394, 0.01655533876986031, 0.03192123253852107, -0.006201938366877208, 0.008921207222667373, 0.053813213365961135, 0.05398443070747531, 0.020687198003984792, -0.002623011231557402, -0.046050318882790826, -0.006442461694951691, -0.029825360711375946, 0.041692819391848705, -0.05316552009221572, 0.007591928882559381, -0.008182252954172332, -0.0665422768877993, 0.006890658835919745, -0.018495424784961998, 0.03085344195339007, 0.05076361602630485, 0.023170707674183243, 0.05140345372528087, 0.01933683234292098, -0.03659138926963891, -0.11933098541022644, -0.09141828736921584, -0.0026863475900038795, 0.017601535500597502, -0.06922267983735828, -0.02677961719937242, 0.01517465690812341, 0.03366151137216814, 0.046620400708656654, -0.013377070282851759, 0.007984922254499536, 0.01724511399897945, 0.032441887637790386, 0.01213570712246856, -0.002845088467857849, -0.009979471935145156, 0.006600412695075963, 0.04008358792010718, -0.012212540404841127, 0.018720968682977974, 0.04272287460861388, 0.08640909025450659, 0.03401313506182509, 0.06130297217254514, 0.06738340522306721, 0.08344579020325435, 0.0587006034917239, -0.033413870480912586, -0.07551345371695618, -0.14231556429581627, -0.16741730114466327, -0.1636980674871569, -0.0719098417011614, 0.10204236455425118, 0.035329220969442195, -0.012021758835141812, -0.0018716709730081348, -0.09381805566999968, 0.003815441854756132, -0.018194481744809397, 0.018082583598225965, 0.03167932333622791, -0.012000690983193578, 0.057150390786795964, 0.06314601550076536, -0.065476518568107, 0.005684160041922543, 0.06485256260740148, -0.002906277372155774, 0.09525619091920136, 0.07782218801979932, 0.09050040074516336, 0.14657538958084454, 0.08561070587236136, 0.05105654510008253, -0.19354965534740867, 0.016957855778355898, -0.056807698849488025, -0.18398290383231986, -0.06883933739635856, -0.08682312984808802, -0.07614203188018845, 0.010085224443948305, 0.00023137405854764946, 0.08684582049034557, 0.0499137956079432, 0.028540129507964765, 0.04855014341466057, -0.030054014200126492, 0.03063493075943938, 0.0441277732664247, -0.006304718915335348, 0.023553585132315872, -0.17780743791120623, 0.024387640530716858, 0.14479171111652886, 0.25671386013085484, 0.447666864069643, 0.16225088270126783, -0.15876746410948317, -0.037816431728775475, -0.5730410104451625, -0.08562663071708616, -0.24246633096079373, -0.0688628493839898, -0.14049393090549847, -0.49683093889379265, -0.26453635424801447, -0.3945246661733541, -0.0018355280560008354, 0.014910469243618317, 0.1604499610665867, 0.22881011582280042, 0.11781129322447832, 0.0621490182973001, -0.006750237548351401, -0.046248120467418226, -0.056716930053347284, 0.04351405387636525, 0.0037313721930324006, 0.024480315675224334, 0.04529307769738781, 0.14585002432033, 0.15427871978312716, 0.2227449425688088, 0.09665589711459543, -0.27727329184385896, -0.19030805202205656, 0.10748134055537961, -0.28646599193599737, -0.42228495466043126, -0.676908648311514, -0.5783324143144578, -0.20791707526290384, -0.3370322360969396, -0.1597193380957405, -0.3747320433527908, -0.341483374135489, -0.14700343663385837, 0.1569724350530025, 0.09309368786966023, 0.060990754965725785, 0.020539943449804816, 0.010161495780525847, -0.03919496515299274, -0.012559469993837523, 0.03569475774038479, -0.04267734756906021, 0.08314613437994277, 0.07751884971408675, -0.08761687855039103, -0.10167382904526544, 0.2295346682462671, 0.06074334485133268, -0.016036424215618003, -0.3267263822625083, -0.3442331732487054, -0.5253304671951741, -0.42485270358470273, -0.6676005993474392, -0.4553194466218192, -0.0940395296562039, -0.019213509591233933, 0.07768163684993296, -0.20525346815109924, -0.20988564615536676, -0.1429718676624328, -0.11082123276946232, 0.07172989713281261, 0.03580328681583105, 0.05602774969338794, 0.025566974813473895, 0.057181358784379806, 0.09780953751080058, 0.040790901324950994, 0.015370977144019813, 0.15401708907555117, 0.1848361981363861, -0.038397174590801525, 0.1456872930345542, -0.021947457031481637, 0.057585146615432715, -0.18398322609572998, -0.27952638319815265, -0.5560592171866393, -0.7557816298918659, -0.5904844936775667, -0.36643725112686704, -0.13309786393037196, -0.11431780645853204, -0.11847048715404368, -0.2325864220256454, 0.13776500289599228, -0.05886578745341453, -0.31312379405432117, -0.22558608999125285, -0.17777465866934658, 0.006662603979354567, 0.01266131117658442, 0.021582526480094528, 0.006322919125932928, -0.007133436402671173, 0.04349291682909275, 0.016163396092427843, 0.12937195184888617, -0.0742518982210192, 0.0689509852892273, -0.05975114252990621, 0.0821238251015704, 0.31764558194117337, 0.08126486078600165, 0.029678081528056784, -0.7205766563669255, -0.9684740106028003, -0.6414612047107869, -0.5754043942303334, -0.13360316692086818, -0.13625358756704678, -0.11595703787063388, -0.0030545738786647092, 0.17512051609013837, 0.09714746952762707, -0.33318744590403665, -0.19298268972161486, -0.01802152252113846, 0.026233537550456376, 0.008810349859834919, -0.045335723086682135, 0.04921809077214159, 0.06625881034221269, -0.0410028330495454, -0.022446189803383417, 0.04576513443011167, -0.023300158276571677, -0.046034822108457926, -0.15718419569976172, 0.35929184285544286, 0.8785462877361326, 0.5760824863552605, 0.20217031276665465, -0.095014260630706, -0.44639188104322336, -0.6783796335260133, -0.30116640078832296, -0.19645532912070332, 0.09403670140622437, -0.10511367630550925, -0.19745811378942504, 0.13635200530857858, -0.015483843150718723, -0.04877458061864781, -0.08249752275317165, -0.007524753192539397, -0.15729690582863187, -0.06801524096353237, -0.007775253739659675, 0.012047519001978547, 0.0458718386422146, 0.004750759518815921, -0.052179708953796526, 0.06989528695059562, -0.04135747000372057, -0.17380720871711142, -0.09188141589197134, 0.5248005563933846, 0.920757672827569, 0.2808264528164252, 0.319358543709697, 0.33107069685272295, -0.4963526669682167, -0.463879907952394, -0.08833907528064218, 0.007204711604468463, -0.1724681986990437, -0.22616856783254666, -0.1196511060578528, -0.03506245143042987, 0.15702926775294418, 0.10424668028884367, 0.04181794955494976, 0.08606410313112188, -0.0707437111744426, 0.012841602416376108, -0.04648467124754832, 0.06407911828258761, -0.03896438724298578, 0.04335146410282224, 0.04336516574457586, -0.12784506363628528, -0.24899783197586958, -0.23229686939213592, 0.083402439574844, 0.09953208644770394, 0.26446279593385225, 0.12863255373954702, 0.3843858114231532, 0.4955247871547371, -0.22435768292310004, -0.24196888697577004, 0.022142097936195516, -0.28842156967726584, -0.17785369846865662, 0.0362699932802986, 0.128618487685622, 0.07998993526863518, 0.1916292383592211, 0.03381208132309957, 0.09814402345776205, 0.3151951240145666, -0.07570535579455723, -0.004506581782466932, -0.05713453370468892, 0.018307367844433195, 0.018581232663481446, 0.021646935228254838, 0.029391578208941595, -0.14595010316674642, -0.15142202133355656, -0.03221583428375954, -0.25136558250336244, -0.0422278607263443, 0.15094776849399483, -0.24031186265568474, 0.2529472216990827, 0.3756746471535921, -0.21828507692149518, -0.3162048335239221, 0.134122277897336, -0.33710397911944484, -0.17576456805888585, 0.320765481375797, 0.4641183619270135, 0.14861291729640627, -0.06295854538839231, 0.07415428555223877, 0.19898781765048426, 0.038018651252198776, -0.09696002926812321, -0.06676754148849354, 0.0012716711890640318, 0.048654760257054994, -0.026294480340908664, 0.013912276996324306, -0.011690455485674947, -0.15341083088647586, 0.15081530019622486, 0.1420476218735486, -0.0571534328088417, -0.14335572470980865, -0.22633714066823435, -0.15075366590963726, 0.43876071116159543, 0.17689379417917947, -0.22269183267542794, -0.04992636162286919, 0.09610828854380715, -0.43137527688698873, 0.1458001657349799, 0.1830850896880058, 0.04216897632815974, 0.06679946004844702, 0.14036655175634125, 0.26565330613604016, 0.10418577271053632, 0.035560539969120716, -0.0055698138141620146, 0.01719877344434128, -0.032619996328199806, -0.017563039649235748, 0.04977240029816928, -0.05734875557098653, -0.05550191850820985, -0.11613472393571629, -0.016227064173318737, 0.16410028046891192, 0.20764818944464544, -0.03916704757700117, -0.3894837339372496, -0.03236712855385197, 0.47575136417668284, 0.2611853274072539, 0.12518277865768457, 0.37774469105678476, -0.06288272175798716, -0.14685860611880053, -0.23070547554622567, -0.12737402386667243, -0.12416910685582702, -0.29740567757052405, -0.06835922835354641, 0.08775819205167489, 0.038437069893837196, -0.08978624783855625, 0.07546741681565286, -0.06128751716925973, -0.007264649737692594, 0.03745506442492568, 0.0013990767831121274, -0.025663156846323407, -0.009784018235056396, -0.13709179297662313, -0.0817955410255403, 0.05383439314686416, -0.010186602289176467, 0.20738199525752804, -0.2586375161426615, -0.08362114703565045, 0.19592577601233716, 0.6227961987749504, 0.3336641489054475, 0.1317289744553095, 0.4547283604791059, 0.34952355466506024, -0.22212875667727658, -0.5103956271591609, -0.3166773837351508, -0.16929292500402884, -0.21914683200679097, -0.22533440181078132, -0.04398323845225148, -0.10933718068687445, -0.013727016025421724, -0.03844369622262092, 0.05249766232697033, 0.02246845850886448, -0.00928478750684402, 0.009766503478915476, -0.026724985372614675, -0.17056654946225494, -0.06704851361844025, -0.041346185992909436, -0.12501103115291437, 0.1491346691400972, -0.35439030328924814, -0.20851986084051874, 0.21133242455810827, 0.1600749739308134, 0.3144904225004913, 0.2218996832808238, 0.20643952666615714, 0.42172680531181844, -0.2239568176542612, -0.30050176875339235, -0.07464279936402805, -0.16231314786221848, -0.09339563133905611, -0.056723277801865105, -0.06617207393116054, 0.034164250248442316, 0.03857405157962997, -0.05145080949269971, -0.04069709843351187, -0.02812708787848317, -0.07359770147593754, 0.08586141886349757, -0.10001866193968359, -0.21774997416459574, -0.22273194434883578, -0.1894996801442588, -0.06143060320078335, -0.02373093517791047, -0.14343914109574882, 0.13672531743201927, 0.35311800254040765, 0.8426927306308087, 0.5640326443008296, 0.262500678621137, 0.07632307610707241, -0.018410706476604338, -0.28161604220979763, -0.14483642949860512, -0.056427529706453636, 0.022333137599345233, -0.08014283644954397, -0.23547000176169552, -0.335707330573579, 0.08680407055932741, -0.03552018101187101, 0.026922485770558974, -0.01039779092778807, -0.03476176602249183, 0.017789912723724165, -0.028742544763513872, -0.025267481723690727, -0.18834657028433033, -0.2699773327104261, -0.17004549964718266, -0.3740528416249448, -0.1568732908327171, -0.28000752350106817, 0.19791762650093858, 0.43504069198682904, 0.712603789575077, 0.5564484019278523, -0.014140812186513335, 0.04231602619105531, -0.6814415897377478, -0.1170420429477829, 0.14656780763457156, 0.25112432330394435, 0.27912029043550535, -0.0908724534681574, -0.3996778803088883, -0.18541155014396837, -0.0021776763724458805, -0.08464160651704092, -0.008472584954491469, -0.024268909446636924, 0.08884584926126318, 0.02002868393977606, -0.07289393099702521, -0.042445255014165906, -0.26604779259940436, -0.2618320135885644, -0.3672999690405114, -0.25441232215841453, -0.1757036312739258, -0.11724899073900914, 0.21541799691901006, 0.5372180353915738, 0.5389134100398043, 0.3967678191711319, 0.05660266000119426, 0.15952388643957469, -0.2301688780792526, 0.24585767985797916, 0.6485811449656096, 0.4233656955320615, 0.3223753560056583, 0.035482336341910586, -0.21071175535475675, -0.08965888660598509, 0.011646134502078217, 0.018353345476513676, 0.033869843408391345, 0.06862387460959582, 0.0444939171246724, -0.0145520465240124, -0.013605366491237164, 0.05350353193890022, -0.13650062450554012, -0.14052450344200293, -0.2576080586559364, -0.3360628576173032, -0.1075413617377157, 0.18642730182175948, -0.1223338478118812, 0.4288306293822754, 0.34677549045072875, 0.18170506439235212, 0.22830318797489832, 0.11462347661004885, -0.1978869587534776, 0.5062680847576785, 0.36097990544745967, 0.18042429406468638, 0.12185028648651158, 0.045376611167896, 0.10343376730417483, 0.02841436721889421, 0.019865555191269067, 0.019263181046631415, 0.005579835850129842, 0.01723795450275638, -0.002553505196017505, -0.0032485981158880814, -0.03601675163424485, -0.04621356176170514, 0.006065196710351866, -0.0805946081498754, -0.21639379533784794, -0.3442726253498981, -0.23701400611933596, -0.2230917327876967, 0.063364716331743, -0.008735167642766458, -0.011242258716188393, -0.21599934391425274, -0.1278628354702021, 0.019667316938262496, 0.21739726483684013, 0.4091053594931193, 0.07062748786943425, 0.23400777653439941, -0.11894815285228537, -0.05773678129086547, 0.07652922762400839, -0.08107175633827252, -0.05381759248218245, 0.017373285141988142, 0.03473275289881945, -0.04724940876168186, 0.026860916230537712, 0.0023314279913040155, -0.013813894311729415, -0.06702841643557957, -0.03454177064371065, -0.10417199488850123, -0.2329714359507297, -0.39040501541912387, -0.35615470338819066, -0.4584536800156357, -0.17358958796502033, -0.1299758062292505, -0.09641507709609858, 0.004001092297903321, 0.518077422865521, 0.27512360818810927, 0.750376289773472, 0.2727561839349031, -0.059624877033420315, -0.25416000569159797, -0.17369593494663887, 0.04751963554399335, 0.021459915123874972, -0.037661428096438354, -0.12416985412154083, -0.05725429155123354, -0.0006753528193018934, 0.03191559641994969, 0.036518096993667544, 0.00021209334516030686, -0.044845317808441885, 0.022127659800042488, -0.037448299057143676, -0.04183666631743148, -0.19579657572038067, -0.36285091020231464, -0.5591969491903563, -0.395135083219922, -0.4540719809572839, -0.047886408485517194, 0.22832373543389284, 0.21872103578625435, 0.39492588500917064, -0.006295823737302285, 0.07472972873552036, -0.31639733291294514, -0.16344967656595924, -0.1316854359864715, -0.07134951397646387, 0.01739404783517499, -0.011151905285371652, -0.11443270442499395, -0.03534675458113417, 0.00888760024904242, 0.03790629349711057, 0.05298209328753176, -0.01785384471402692, -0.01862070579661093, 0.01204047376558459, 0.03767917740339787, -0.022864366900294236, -0.14404789528018164, -0.1460380636900814, -0.20954865292192948, -0.44401933807519334, -0.4041567273610959, -0.28992245924670923, -0.23275788154314053, -0.19749854004346873, -0.1902930880973216, -0.24877993744015364, 0.13599717451353813, -0.018013025735337633, -0.12110982358992792, -0.2324699724538397, -0.28702771173050895, -0.14264715862640323, -0.11175203073214394, 0.03692082642684632, 0.062036622834935384, -0.03529725681413933, 0.013401860286147935, -0.0013083374608141973, -0.0033822156994685265, -0.020300318072184236, 0.0050878424497803245, 0.004177442796090524, -0.016014494984922027, -0.03774395763379081, -0.09798123335605406, -0.06609205026013357, -0.08801052271160255, -0.1634394052058933, -0.15113777320158037, -0.2927514525056317, -0.11502188195044158, -0.16145316392584033, -0.12151333377534135, -0.35286144293194804, -0.27016915228191957, -0.3395607254963689, -0.24704293026695523, -0.16728899188184526, -0.18523874450274794, -0.13396870067349853, -0.060815323105580264, -0.01666986775828895, 0.025704595411598596, 7.310063622032728e-05, 0.025554955622135868, -0.017085711903853815, -0.0026039829288688706, -0.05308839192448841, -0.02812733679200674, -0.0023627636258008768, 0.07320751722646826, 0.021981250411486176, 0.004805263108287527, 0.05826020199094012, 0.021381939636038964, -0.019793944338382916, 0.04077245837437599, 0.024653312052153282, -0.0221509231345198, -0.016619626232271718, 0.029110003668732953, 0.026597476004104073, -0.03930044922430405, -0.008967159355692951, -0.11368920430744812, 0.028978229710383746, -0.005057522743214586, -0.03502746969028188, -0.026342949448568246, -0.004144046740376954, -0.039483642578189676, -0.029244787311350492, -0.04213906771254681, 0.031946111880538065, -0.02993689755664294], [-0.003005657343653586, -0.029930942311117377, -0.053162807659315546, 0.030249675045015894, -0.08868028905532109, -0.0020567350308901473, -0.07400878723880644, 0.0016500107970248458, -0.03437338841048992, 0.009027043973414209, -0.007864938742142358, -0.018019979210457965, -0.03471321805260032, 0.019910626924405463, 0.07573572283708188, 0.00793312298026422, 0.0030069683361264215, -0.0024145194229538954, 0.03350966590793598, 0.04983302585959983, -0.055175718737134005, 0.07055149664866046, 0.040545258350712605, -0.06813869203068885, 0.0015106633592741898, -0.016523704944065024, 0.024130592813703795, -0.09930942728144908, 0.06802682586157091, -0.01366075559181815, 0.013509797383331754, 0.018080760991431348, -0.020617145611209572, -0.06880954101671412, 0.00727762646099877, -0.036022986957737, -0.057438702614406145, -0.001492920669253479, -0.05639885157000748, 0.02103939407832306, 0.05116050367967999, 0.031441848195116244, -0.03420042030809024, 0.012697919557075464, -0.023724224912644594, 0.06482029966516002, -0.019835721786450315, 0.0225050515413308, -0.009935978996879568, 0.0211416496830678, -0.1082313296391079, -0.003254048747119217, 0.0020875662184259764, -0.04960813400151853, 0.02167411372368051, -0.018672785838617003, -0.030340321619811435, -0.020150936346731298, 0.0051739253769623236, 0.034791160335731146, -0.003847774493132857, 0.02735089923778178, -0.06296330458946889, -0.08847216111493512, -0.06526729899802819, -0.14759766278041891, -0.09446453936537022, -0.1299078845788273, -0.12590705084162457, -0.11894105660087192, -0.009482929384299572, -0.07074611107577512, -0.13097123965715463, -0.04839380050977114, 0.004288892521822705, 0.005762088720643293, 0.03585653977407478, 0.02336114337641131, -0.03337828508211098, -0.03887244610236002, -0.05470992093157028, -0.006245071975756564, -0.018937912610602164, 0.035071793296753875, -0.020842375872589972, -0.02484807963434, -0.06875513232273717, 0.04959708215313385, -0.04103029900113213, -0.051099520505775015, -0.020438746553697738, -0.008397195271616937, -0.05237409295939651, -0.13422816331333542, -0.1344549924067754, -0.1358621341199502, -0.2914941371820333, -0.19957743768263161, 0.009569066058848757, 0.061432126437246035, 0.1874708327244981, 0.10771961800186418, 0.15242462251166325, 0.08791053294381294, 0.16948188173689868, 0.10162390509646198, 0.008409707832663876, -0.005293268200942018, 0.02070113734225653, -0.034693163997825585, 0.023249410378080704, 0.03464395347458848, -0.007730000280543247, -0.027248651950466662, -0.032980653281918466, 0.009940538695524238, -0.05587681603843193, 0.029538476054474634, -0.007978500075859448, -0.03619019636487881, -0.13454509930899705, -0.21122256200311731, -0.2782314462830029, -0.10340865807859986, -0.019017207953732365, -0.09724423803849061, -0.28854061574917184, -0.21886425481797606, 0.01940765952650164, 0.1304549896693104, 0.17739145566698108, 0.19077522055841092, 0.21078170167456642, 0.22702618591074727, 0.14386248076317845, 0.07027579002219253, -0.00922421567544866, 0.013740268761676796, 0.0067680945897153864, -0.018966303970839114, 0.039734297867114, -0.0028320653813282705, -0.03709930652928917, 0.05462118280550826, -0.03991533588249333, -0.05431633670552231, -0.0012915924543783672, 0.07733321867213903, 0.06382690933309566, 0.09357472260350479, 0.13050528500916658, -0.11825976230515023, -0.04760596645955001, -0.7907679061220599, -1.0792391753084372, -1.209409826278638, -0.3614140650094144, 0.4689311793328215, 0.41371557180361906, 0.13441194388359234, 0.12432055380192655, 0.07536809786106138, 0.23929581318126375, 0.21271324641984146, 0.013806707534431854, 0.01583572922296646, 0.014188220837375202, -0.0261526894393827, 0.035092006892622936, 0.01652461449631193, -0.02578717884258792, -0.0450235743837633, -0.018245591814963148, 0.19305100964092622, 0.08390954542969212, -0.05863980921979723, 0.2107720941080526, 0.4940555700289631, 0.6320292324442607, 0.06382293937051223, -0.20866726221682025, -0.7021356074724046, -1.2652827951911285, -1.0110743244248057, -0.07724216847471467, 0.14708280365384266, 0.7607917933204927, 0.5200338292552648, 0.1300210833599086, 0.182433577425376, 0.12497724566299447, 0.38577087614280237, 0.12206955676299953, 0.11215768498386688, -0.01956060384884925, -0.009685082294167244, 0.0040758919496966285, 0.03294510272786002, 0.06216986179778182, 0.029946542285770587, -0.005706208331768671, 0.11849565905170607, 0.03417481638026628, 0.01602646731754342, 0.040280474908856195, 0.7330829598473155, 0.35170739407085816, 0.4797264467532037, 0.1685558798191735, -0.8114442971219237, -1.1382325554362729, -0.36795076568909807, 0.391572601032291, 0.2974351554540564, 0.48200796897682496, 0.28823011283800465, -0.05621056878497349, -0.22689619697143365, -0.07349730856105118, 0.1830596760074004, 0.1373036702366258, 0.007915642777079497, 0.08974017511533403, 0.047603915116945915, -0.006779015012451004, 0.051209274339597106, -0.008139855122570072, 0.023729113259426064, -0.06315338964965277, 0.17193758050696498, -0.2310118180398691, -0.10048306925437324, -0.11796515318340225, 0.28385311524015183, 0.4585065993812002, 0.27200518526238754, -0.025230157411878132, -0.6880338551364881, -1.0046810997123548, -0.5997939626057437, 0.4927712355161174, 0.16592427471609797, 0.00551152952217273, -0.15539290897616873, 0.03154189445079649, -0.20295928993200116, -0.0187358384055791, -0.012450015555128749, 0.13896571568315605, 0.1632035364173623, 0.0061228846653967285, -0.03246077158814884, 0.0257154161303962, 0.004897339511758491, -0.018994605009748318, -0.09747903137107287, -0.1778418757918567, 0.14761044503623816, -0.14135058447142865, -0.44311509281752964, -0.08576633393786182, 0.3194901703560797, 0.5205416353984146, 0.22324383764135422, -0.15747265157010146, -0.8876018652035287, -0.8809527086464299, -0.24448006729443642, 0.6608305624966843, 0.07313508998202542, -0.34869287540961086, -0.46862855726762165, 0.22997518032684908, 0.11947026101285659, -0.22643518301922808, -0.035536919896458186, 0.03548467277608444, 0.2174213325141287, -0.019560261024530883, 0.005542655945991997, 0.038030516610440414, 0.023681783932651617, -0.04612274621056427, -0.10593744398221958, 0.012471570160556953, 0.14690801824796723, -0.3063705556388072, -0.5152194718635139, -0.13987032106856273, 0.43676045239619754, 0.673826179087569, 0.9486134565886257, 0.23857404569230387, -1.2047152918576953, -1.2098632222046182, -0.07057150608777574, -0.19180965063280425, -0.1864475131161884, -0.5518929434072255, -0.30980037455074394, -0.2640419305659228, 0.040303730813666776, -0.18614852216031963, -0.3206695255837739, -0.10131084034832254, 0.09264362549527463, 0.04344045742546316, -0.012082837704208222, -0.01181908311041948, 0.03850471036274712, 0.007165892726960106, 0.002794411035177888, -0.07691563285905835, 0.07209188614405905, 0.1808304015787875, -0.1760780299027846, -0.1805907740094937, 0.30474470493211503, 1.1545052178827764, 1.3662063393987984, -0.1398088309809988, -1.0723734582605462, -0.8710257600286788, -0.1928305473516996, 0.24619776850854258, -0.02951770909752866, -0.1858368242555608, -0.4352513633356888, -0.4516258354360922, 0.004357835578958515, -0.3054347050391314, -0.3357436915513007, -0.3311782780343149, 0.00413750403324696, -0.0067571808066041105, -0.004376385480524204, 0.04667040394210718, -0.0258191552906299, 0.007139355802667762, -0.07064348721926432, -0.07954221031982106, 0.22740182763832972, 0.40333679360120295, 0.2875492053083725, -0.04301327874767079, 0.40000259686538364, 1.3063153602587074, 1.0614730698223431, 0.03470970486178327, -0.4711918280369598, -0.5773705759711146, -0.18433768752895938, 0.4011631491410591, 0.11865462205689022, 0.2594158208342835, 0.2212226928945928, 0.31331015693592024, 0.23650399890499763, 0.0361550290115089, -0.36288150613209974, -0.20832171469581623, -0.0008586088435862651, 0.01563700603680277, -0.0012779686928897152, 0.04996838598716505, -0.029831770837589356, -0.02941432308022145, 0.007453789085229632, 0.07281296270652962, 0.5188401851653538, 0.4470766103718753, 0.3956871458283659, 0.7531819836800381, 0.21394649501077787, 0.2766317770558788, 0.117121417895281, -0.3253962834356474, -0.6128248453133183, -0.4184408113920435, -0.049076106185966854, -0.28557963337700554, -0.07732481620720164, 0.15160774945675495, -0.24440857703845323, 0.34853629402343256, 0.07079699752504826, 0.23818004432908418, 0.03879322622362855, 0.043909134085014435, 0.002988040081067387, -0.03848175847916793, -0.012726776190753773, 0.044664430601674444, -0.03921934038613673, -0.032605363752701476, 0.05985116605171172, 0.2560087099220477, 0.9765049452015692, 0.25673983971792474, 0.3110297445316448, 0.4473256352477739, 0.5536582685024125, 0.06395985591406138, -0.1722463758497673, -0.3845362882868292, -0.5585564842162142, -0.3997088054150191, 0.201016969516393, -0.4506817081420802, -0.41254019671106085, -0.35155255569709853, -0.14023611178244244, -0.11842283882743083, -0.10374977561425394, 0.19179744676857238, 0.21895035983003835, 0.11872828922389775, -0.018612448640120027, -0.015555076277707924, 0.02408849510287578, 0.024639079448871604, -0.016540310453216515, 0.05385507577084353, 0.14350345780560403, 0.2172077273147634, 0.3088193041928509, 0.3239402390157753, 0.571331552637972, -0.07495227285403779, 0.2479900562531165, 0.2758608997011767, -0.11062693280570197, -0.23425000149338693, -0.24321973400545632, -0.24244493679677104, 0.04863267392332229, -0.16980685886468475, 0.018978363161101228, 0.06560613982200778, -0.11965002728229264, -0.470628437143446, -0.0765270987344912, -0.10545291277960658, 0.2509259407583516, -0.1276067459394808, -0.19788992417582105, 0.06030043794882822, -0.012163050608921564, -0.018330564239286952, -0.01223830564974935, -0.06433243236675974, 0.028190131936031853, 0.039512347295272976, -0.15818635416278423, 0.06964546891567656, 0.2618117496051177, 0.11029795900652388, 0.2889568192869745, 0.23475736034870073, -0.28067350772556354, -0.389232430024812, -0.5235711601666192, -0.05217907996884994, -0.12903896423442887, -0.031984187288513974, -0.29698543056364796, -0.04378972541452114, 0.3090891806957715, 0.11799107068995328, 0.33680975295499105, -0.2820587119984283, -0.08874863366278019, 0.09468024567804884, -0.06966793185215711, 0.022794423653659485, 0.0702071930540713, -0.05838958410864697, 0.04159588415780713, 0.031115979725236387, 0.0017741276288403653, 0.11143249893172531, -0.04833679205194195, 0.01238967673853725, -0.09496095285063635, -0.25074260655065544, -0.1438003973701344, -0.3311594926930059, -0.38837550952906125, -0.5773349877430792, -0.33484105271237, -0.20689337229028695, -0.43066402879140203, -0.29319183783696057, -0.1917518741001925, 0.30967455033460795, 0.043729726948189516, 0.10671895098311565, 0.2124626417985331, -0.34729855365860396, -0.11778739444722584, 0.04187043536640822, 0.049596788945008845, -0.03780145904751902, -0.0011210961432382219, -0.0319654474068519, -0.014850611582370526, 0.028182550802004033, -0.028101530491515, 0.13094659408406809, 0.05671288756491564, -0.23361120405010763, -0.11889671901512053, -0.13248827904758106, -0.07704711402054648, -0.18200410541295783, -0.23552952820686776, -0.2934247820371762, -0.2548715371011467, -0.007266367510314417, -0.32286118355707627, -0.2721159717991548, -0.4318092028720828, -0.030320361554487835, -0.1024582022882988, -0.03367658310789603, 0.15529662792365947, -0.40647701557812016, -0.28071824274474355, 0.05970102348491405, 0.016026701866025294, 0.02033698806262176, 0.051529107351526285, -0.0765394569931668, -0.025805641489647254, -0.032158095746774674, -0.10026880899269883, -0.11875320218400533, -0.041656152168338505, -0.06534831649434034, -0.07095845831661662, -0.3655110163557479, -0.31616276488459527, -0.41207456224386824, -0.3043769861819647, -0.26365859567878674, -0.09177857765538545, -0.048157052132934516, -0.41628226172812255, -0.6448947195154365, -0.14498068742369585, -0.07514598227117864, 0.07933430281291363, 0.4078838339917362, 0.04581741783632489, -0.407419349484358, -0.21298745695567062, 0.018244126970706088, -0.02652983172652339, -0.05972680087014, 0.009216710602650965, 0.012252563842196694, -0.03773928510201828, -0.05285815943346494, -0.09339989182300892, -0.20107540160375834, -0.3571688231463123, -0.13987300868980465, -0.028639724578355064, -0.09621453336087266, -0.38698092273341, -0.5812560633357028, -0.4629791638450796, -0.11052384764400396, -0.21173849074837414, -0.42939339458429404, -0.05452398105240793, -0.18224286322273053, -0.2179506232501728, -0.05745004054787766, 0.28119235593436126, 0.2112744796963704, -0.20514145463883537, -0.11655490231475457, -0.09184067680094989, -0.05687380095697602, -0.050991742845735204, -0.02607045887093816, 0.00633540214888713, 0.02494777299379458, -0.0441300956894182, 0.012367969705709227, 0.010262521844166258, -0.07554235504251791, -0.3486613156584521, -0.3514235786791296, -0.17578527353588463, -0.07446856273573273, -0.3368999609993012, -0.47328273855607367, -0.12624091894346745, -0.5193076891170437, -0.3402084230166321, -0.19717455201002132, -0.02554747698702045, -0.0528510926264291, -0.17835449614431081, -0.17024399699958337, 0.1530560750823915, 0.2077165473069645, 0.22902745479723113, 0.01846478175645517, 0.17015215605129297, -0.1019369633740061, -0.06042857756501857, 0.002086145433045018, -0.03648111844426963, -0.0014928416516915106, 0.03453505041323163, 0.046062394852872425, -0.09541090566976805, -0.033121099454505185, -0.2097990633451656, -0.2640823677006032, -0.11388293969900957, -0.165374001769221, -0.3933742998452785, -0.5742709601490433, -0.32053124507544406, -0.4885915111078928, 0.28218532854303746, 0.11741162164450222, 0.3296125887406992, -0.043959767114600305, -0.13848770338927027, -0.008226847203163773, 0.27855963173853576, 0.15956022522429952, 0.3024654983808797, -0.16809238676098034, -0.1240359713690973, -0.13670003908683143, -0.17549393168265826, -0.005318803823384153, -0.014005447098937331, -0.01195275949832616, 0.03085790497625309, -0.026727133988698575, -0.04321728332129689, 0.009443829456754331, -0.0798006247002681, -0.06241597651615666, 0.02202903546870604, -0.09057468726485328, -0.26670761073943267, -0.09041215807854192, 0.06364899517453278, 0.06242842117457934, 0.48627755368805914, 0.129755775095993, 0.15815077746004214, 0.22473167086733858, 0.11055544537293734, 0.11800973678066073, -0.05387861520547813, -0.0578764327617891, 0.06187684732821616, -0.20056522272530428, -0.14293712339208142, -0.12375761595619739, -0.013900877130833387, -0.012037905648921534, -0.03960282308214249, -0.04901258957774213, -0.05943957609204849, -0.035373435578767, -0.017452561373688575, -0.023979307000398267, 0.02931431925657201, 0.046352066683865184, 0.0222008651599156, -0.17831711043856632, -0.24594487143892527, -0.012881730798611294, 0.27493290684285593, 0.1450280559962819, 0.5062816991250932, -0.10370814303033046, 0.22234642357737536, 0.544770335857321, 0.6396511731276041, -0.05212229708377351, -0.08263533413848063, -0.21968602498705023, -0.22516764185760946, -0.17589605077312132, -0.20740405649235136, -0.0025856641640009392, 0.03826207405610872, -0.045938447651340225, -0.009996811351268781, -0.010654808738632459, 0.019802433757434373, -0.09412871280956706, 0.0330343806969126, 0.029139021937454004, -0.051128081063022454, -0.16492435596023433, -0.26138923363717814, -0.170245936834099, -0.19878348969375492, 0.19456626579289044, 0.4515459804478356, 0.22099509080444515, 0.4780050408480698, 0.03776586934969915, 0.4010756205335683, 0.2783701700888363, 0.14062984682720597, 0.037741060121322174, -0.29421415643747745, -0.36991909917577653, -0.21059202031850452, 0.029026631673851454, 0.02437890854104114, -0.0009961074057638587, -0.046599552475831744, 0.001834397942751155, 0.07094124879786073, -0.053057613222473474, -0.01443143299107449, 0.019373423273719693, 0.02146247101287301, -0.012943269619829447, -0.09702108400233508, -0.15167644033175917, -0.14780191711833085, -0.09289136522583041, -0.06050697265466264, -0.3045350733129245, -0.18947656849561023, -0.09387200589520947, -0.21535874604634483, -0.4395143098370675, -0.17331365183573846, -0.1892030666617685, -0.32571002148466044, -0.32568378846398083, -0.012036978362728048, -0.27671237968546597, -0.3163145244658156, -0.07764685150590778, -0.04420498183850792, -0.017339612604714814, 0.02960215999874788, 0.013521023991360542, 0.01100385237312961, -0.00524351950686931, 0.03985727381152151, -0.04555045888330262, 0.00808108326381529, 0.02829292157598676, -0.00826607224621784, 0.04837448781697274, -0.057508181210098513, -0.061670265505920856, 0.049605835147101235, -0.059738086867759714, -0.040284161149808824, 0.0022634108409645293, 0.00018957894272055183, -0.1516904496526697, -0.14377449310801713, -0.04285732146345787, -0.021978459921602446, -0.13284558048610362, 0.002272376942121397, 0.01629314101602443, -0.011753264949458218, 0.00026176804907258113, 0.0386710975438305, -0.031155687019253944, -0.04175651669310522, -0.015277142089429456, -0.06984725095796869], [-0.027883911558953912, 0.034335214342726815, 0.035440775920722555, 0.022459528635726565, -0.04287527819617596, 0.008770336800851179, -0.02540463264629329, 0.03646740943617712, -0.026902810139405105, -0.001823059761593961, 0.07479354649689886, -0.054599019772761735, 0.07723443912060501, -0.0027474934034340003, -0.05887576230344175, -0.008202810626753267, 0.027229261934125334, 0.028523875413162668, -0.059742621027862534, 0.016017486075431745, 0.02827594058310534, 0.024921119967524247, 0.018144272989303146, 0.04519891532401985, 0.015349049182244551, -0.03879699619510945, -0.012623356833881338, 0.012293608739856686, -0.011841384278765564, 0.014055719671524412, -0.030259964250528678, 0.013839192839028647, -0.0001255617954333049, 0.02961477360524655, 0.03968345003209821, 0.009613687675068523, 0.0734401146583902, 0.014420241407778265, 0.029440387864881595, -0.016018013491294576, 0.042887306701587025, 0.012097912657818285, -0.035267028967464094, 0.01670026364657152, 0.020723699405410776, -0.03368599874376729, 0.03205793509345266, 0.044856812336981244, -0.03197477907844783, 0.016937050791308132, 0.02372946341478591, -0.01576592321835847, -0.07265707709321015, 0.04359908681970718, 0.06944272175991505, -0.0468033841872747, 0.03826577346252539, 0.06754554775726206, -0.02043561191796121, -0.01932341778351471, -0.006542223643859659, 0.07378704095314832, 0.022641326675476914, -0.015523492506298583, 0.01594698001832027, -0.055024258043837516, -0.0050801349954033865, -0.00608700794933034, 0.04663253939636734, 0.06391484359096015, 0.023735743002520442, -0.0020418826219408474, -0.014841030705783539, -0.0015553480881081731, -0.02250600873712024, -0.07922191713406844, -0.018705793877345077, -0.055277166624171925, -0.04689317971370519, -0.053681952901159874, 0.02918732274703707, 0.01338291485832694, 0.05267005058628214, 0.00890305368576688, -0.0048428383299061175, -0.014231401780386342, 0.05416460159860722, -0.003968819935737936, -0.006956594718180067, -0.039035728998748825, -0.08532745576081943, -0.11243277957646029, -0.10570812123213161, -0.05666763380216253, 0.018283129840360138, -0.067072768550136, -0.047985114855454265, 0.0933915714050721, 0.014434887309664666, -0.054924959062807074, 0.0155123710223106, -0.1531474397240983, -0.26343968132075934, -0.30961788526794876, -0.404590109531437, -0.0672819553924363, 0.07488480001189889, 0.01722922218033156, -0.08048920094462919, -0.06087177955171743, -0.0019561156665627933, -0.004883365276865189, 0.010847691050703389, 0.02643928625970321, -0.000876720621772899, 0.00478957504680982, -0.020142593234357693, -0.08702005692871417, -0.059879365245401564, -0.1688833444375058, -0.08899435840470105, 0.07493326474168677, 0.19484031212554623, -0.06788729237438872, 0.08066628875115257, -0.030443777779374615, 0.09552171343992258, -0.20140894201293538, -0.14817168189227184, 0.09594882402893933, 0.02501710757171523, 0.14265287398054763, 0.00631182199754458, -0.15758609995631515, -0.057840717611357284, 0.0020754223329930137, -0.11716375070094427, -0.004148009636755235, -0.0006649598211369978, 0.03402580819217389, 0.03334620572633354, -0.04117245792361958, 0.021621097507227193, 0.014730804001700641, -0.0787904550156201, -0.03323800481984284, -0.12079918748164914, -0.0937677557584264, 0.18352730095118086, 0.13116513701271537, -0.09753041019787285, -0.01983695582265409, 0.061115807484437394, 0.1457882085937223, 0.09938253902226939, -0.05216030681132839, 0.13291901164788256, 0.22431700112646646, 0.09901312472238363, 0.11401782675109501, 0.21276054616737228, 0.1534037718422087, 0.0982388544499536, 0.06843362918538601, 0.010620358927476148, 0.029850643050455407, 0.025345712729959967, 0.028067305812876853, 0.02438583273960278, 0.024136315509492783, -0.02140432771182331, -0.04157890700114212, -0.08216102614490431, -0.1554100698458715, -0.10816969993953776, -0.05037986324568441, 0.13486138788618052, -0.16980726794221954, -0.32166076874989097, -0.3178013269471813, 0.06852365760535742, -0.0325756710002065, -0.05834074672768841, 0.30976277445815353, -0.07773353593304501, -0.24240187356010098, -0.35097314615254377, 0.11851411377701081, 0.2913441107476088, 0.03528541451367586, 0.22592225941014318, 0.09471077941536625, 0.0005250343480646257, 0.18787019188682724, -0.012301408176864531, 0.05144299572050332, 0.09665425934457841, -0.020219283201135908, -0.0018565122958930542, -0.044809286680936665, -0.15521929390664682, -0.1241127442763064, -0.1845611852205149, -0.14632401732186728, -0.06225083930312762, -0.1224917855079825, -0.14274288564697793, -0.3063605619317501, 0.05372895673396562, 0.066681095270727, -0.09188109121834669, -0.2890336106860423, -0.41673052160045965, -0.04987515301994325, -0.41727801441622603, -0.40460452889001924, 0.17997502291756812, -0.009583665158232672, 0.20870938297253183, 0.09457455611314501, 0.11569053667176958, 0.19171898481468677, 0.02445893606855369, 0.006612469414759486, -0.009517847858811775, 0.07998989104281391, 0.03264721892155512, -0.05484208550227647, -0.13810712455436625, -0.09180342147268779, 0.01334278754083089, -0.06645116267499881, -0.13750832919938977, -0.06345465412553758, 0.06543829222613788, 0.33906628438371983, 0.4945547492445875, 0.17144465991977936, -0.11132566647118261, -0.3862495461251782, -0.3704461708077139, 0.11111605059360409, -0.06375598193987206, -0.07235349458489934, -0.03003530669578692, -0.12010047472554718, 0.1606529044737569, 0.2038743995825775, 0.07794021673723324, 0.07514303236450677, 0.008540959968381251, -0.009686542778189929, -0.03209780717888687, -0.0021400174695734523, 0.04953809077629433, -0.031627092244145595, -0.11446287362717397, -0.1055691034438711, -0.04342420099357661, -0.1624183819165683, -0.3272956568012308, -0.15744623757270343, -0.19242870467266657, -0.01528527810859067, 0.42356938394127835, 0.24186170226027684, 0.09563153328406804, 0.048379005890947076, -0.12300714674971, -0.16264391608503873, -0.21318699004347624, -0.06591164552146098, -0.12349092796123816, 0.0207726544597871, -0.06358091945865715, 0.11728070183573575, 0.08253225154622773, 0.03470750346744712, -0.03142158139618836, -0.01619839570892355, -0.008679752743422258, 0.011364200424017729, 0.02664383437851819, -0.07402706381080108, -0.10168848008863902, -0.14201154018151152, -0.17142725295754244, -0.20678967271366358, -0.2576612826725165, -0.35479822315567755, -0.2465330179020275, 0.07453673800553569, 0.6899425464311466, 0.39442043466368776, 0.5834893323822398, 0.4878295956720819, -0.4186888119161418, -0.4416475534404819, -0.124374347605213, 0.017192227570581992, 0.12205962826369757, -0.051954637173105535, -0.3020829870108096, -0.13782429127651202, -0.14198834891358597, -0.08283189569898658, -0.0014154465243832067, -0.02070850945458936, 0.060983409739601674, -0.02995174074019319, 0.044803554008328486, -0.07491828826808475, -0.19847586826565633, -0.10247696999424684, -0.13260643317589957, -0.020529164850132987, -0.34977296084435017, -0.30423325427415604, -0.4584292698575224, -0.10068714457075788, 0.478842822166784, 0.3969666449722196, 0.5994782922712468, 0.4041030155704218, 0.26187383360716365, -0.44103054192636826, 0.22428417674480458, -0.11000762126274012, -0.04166565834485308, -0.3025690441787196, -0.30026740563416776, -0.1472262446716769, -0.12531904451471146, 0.009825149848807323, 0.13160518590541315, 0.007216566927669235, -0.007438905719431334, 0.0028746963181182786, 0.01741038490626847, -0.02041282554318387, 0.012577321889458306, -0.0029143124585175825, -0.10339591045328554, -0.06344520240103714, -0.3578789578644381, -0.34459075377791143, -0.3179655724845596, 0.1766462703294082, 0.09300011096284438, 0.1238607445245702, 0.2773998119884253, 0.670908344977662, 0.23460347134652668, 0.18913704561280567, 0.132090883120753, -0.08254634869496456, -0.1346442687627933, -0.07881247273651268, 0.019597778487848168, -0.14430308126214686, -0.08180740338188768, -0.05355122963152618, -0.027672651974070282, -0.0220191251433719, -0.01786569709386012, -0.05773544308074853, -0.0435006877141947, -0.014728338143760407, 0.008935572973803865, -0.11030271241084082, -0.14636028754091537, -0.12065544674833997, -0.2328283602140348, -0.35312214635720135, -0.25755958328755335, -0.09851030744421464, -0.3029196364908573, -0.45396377518067915, 0.07534022255403688, 0.7726749208492616, 0.4305256494444773, 0.02815167489604645, 0.08582969906116256, -0.444496777183426, -0.3352170233913139, -0.20938035456277887, -0.0694622893573016, -0.1853576836165219, -0.07466322687417189, -0.030537715435546953, -0.009230929552314969, 0.007115740830166298, -0.008315404131704212, -0.041898230344923564, 0.012913570368964285, -0.031070821873231676, -0.008339963757844022, -0.11752381907983907, -0.06948950021123086, -0.20827658284445227, -0.2633744252793124, -0.2034067987627175, -0.2533574956424188, -0.3879818747613828, -0.22917329221102337, 0.2100810578749919, 0.25095046871681964, 0.5500593368475013, 0.1859395929250326, -0.28792110916974334, -0.37688348135596295, -0.4588742475329687, -0.3139090488956987, -0.41898356883877436, -0.19272142238016451, -0.11063875660487159, -0.03319969868772594, 0.02867323084467906, 0.01594780892508508, -0.036347145030876195, -0.02428045939927002, -0.021970726765346123, -0.009192694997775917, -0.011018088210541278, -0.04221225897948269, -0.0845577923242525, -0.10831813859363164, -0.20082164548160522, -0.10426096401779068, 0.0349240640495228, -0.2673055814000428, 0.10631913903630756, 0.21242229426273765, 0.4156671060569176, 0.444755825282489, -0.03267407337880757, -0.4648679551346198, -0.8154535748251477, -0.6461945471669513, -0.6707243907050153, -0.4951343207580126, -0.4527924385463378, -0.36958972616215907, -0.26373203981875504, -0.04869961920423976, -0.017366162087265387, -0.0019230723475644515, 0.047937245226326676, -0.0601198682877657, -0.015021644966603721, 0.011316924178103266, -0.06766668149747633, -0.05089093894807352, -0.26529258394757466, 0.017306872846018534, -0.10492870029706153, 0.06931661555870006, 0.22679721347897727, 0.3643401575654476, 0.40498209038417315, 0.3041694162110294, 0.017975913869234264, -0.14973717242751158, -0.3389517290563265, -0.6570744840523103, -0.7679255491878799, -0.4189425783795822, -0.6563837877377687, -0.34679894830449187, -0.10245619185982217, -0.0797785229638172, -0.01585127580330278, 0.03049874117928871, 0.12318133592362247, 0.0406236979275312, -0.014890542924966426, -0.020000594073972425, 0.021614478852193978, -0.04538420816544575, -0.042470781557628005, -0.1140861428611974, -0.2683706802245836, -0.22812331860538962, -0.28712806029487553, -0.19341727745762416, 0.03212037974063418, 0.35225914656214624, 0.3540543871490427, 0.24857455241492504, -0.35531298807450873, -0.4638139557836586, -0.5484787663781772, -0.890800787375969, -0.637189575020423, -0.0694065519317176, -0.36649304346787775, 0.0704485342229337, 0.2558224355304679, -0.09743008325596433, -0.04759817740374339, 0.0419982785480601, 0.10079001632314484, 0.027816684238548817, 0.038003055680865865, -0.04935199135729075, -0.009488306391616456, -0.0018248177695995066, -0.1227267970332292, -0.05584212341027877, -0.2584160845620537, -0.37998068205209284, -0.15048100481040738, -0.13142933931271378, 0.3935220135575716, 0.31018206337805, 0.16388591095150642, -0.1881177871746825, -0.7413827734904027, -0.6906254281270297, -0.6545964533919113, -0.27785668034790123, 0.048710582358415765, 0.11218892257412781, 0.02847650101473494, 0.32288359872490446, 0.2982223937781928, -0.061265456592328085, -0.06429821139564153, 0.1525235680437941, 0.1004669251846178, -0.014494258498047937, 0.003742372613790973, 0.02885729762187793, -0.002797835402755315, 0.039627379719030895, -0.024401027197137597, 0.15582775546951466, -0.24762159241451373, -0.22869139490396212, -0.050434855706541576, -0.20760972345575426, 0.370663320191708, 0.3665169141660769, 0.27562721809853497, -0.3750163455796752, -0.5604286828522366, -0.6225258038129334, -0.0634039470044365, 0.39055941137679595, 0.34099091308061424, -0.06337140252859402, -0.05522453296603311, 0.3592449708993483, 0.3657101926470465, -0.10023326607672539, 0.0631336352688303, 0.031113476518028746, 0.04196691668281051, -0.007612619709555947, 0.003513645180267007, 0.040135919058142365, 0.07224799019606877, 0.06828262738915242, 0.11724329062493545, 0.03874405076062205, -0.16781487141432633, 0.0585266681984859, -0.10699073244290117, -0.00042125084352611985, 0.20005030942828367, 0.599143115615194, 0.41511794342485797, 0.3102190927796199, -0.37860723401161817, -0.24913140860840857, 0.060700893126641405, 0.06797641817173086, 0.3130505317261975, -0.04466729768315603, -0.035576577393715246, 0.15741788116743577, 0.08823757905126772, -0.049790211530680285, 0.0008233352161216116, 0.11754007507044094, -0.03101927633132188, 0.06555758760582252, 0.0013699472291972803, -0.03037887005871412, -0.010194547325985594, -0.0878279071843409, 0.041088278246261496, 0.06455938495503877, -0.07553327093506078, 0.055046736765697414, 0.10563120866763091, -0.05946887758286438, 0.13880578915989591, 0.0625872317091516, 0.0524816547326825, 0.19170404304117464, -0.07994375627368168, -0.1530625732460586, -0.7001104632635492, -0.3383013154971498, 0.13942204040375591, -0.1076074938745005, 0.04865399435505212, 0.020053290607754615, 0.17218573636145243, 0.02248065178238887, 0.07552841664051478, 0.09508157832669849, 0.010611531883539381, -0.004773077885744223, 0.020702156278997148, -0.010313154161269659, 0.0054574901215204835, -0.053912920828168606, 0.03343783171111627, -0.003194474407574242, 0.13956381287405653, 0.20680595257962725, 0.1643124254122906, -0.1656517572962694, 0.12992133372205836, 0.4077012511107377, 0.37117815712193386, -0.057745525889135306, -0.1559013329087149, -0.4877964521115211, -0.5242645518367337, -0.08746860950229733, 0.03953534701612223, 0.23972440131079578, 0.1269020008090269, 0.1285511845204873, 0.1286709711167967, 0.01941370222244927, -0.010598202603363463, -0.026973584814728547, -0.05883698273226243, -0.052413182759336936, -0.014450256584702196, 0.004309812659628777, 0.021367361374909747, -0.06211186539965285, -0.06990516596356484, -0.04107127448551085, -0.03293471735799673, 0.2579863429202826, 0.04138669747916228, 0.059859415863824886, 0.2859575665363225, 0.22834803004190338, -0.1401111006729228, 0.04775269521918759, -0.2945490480191143, -0.6136621585376458, -0.4132260292855101, -0.06256824377021905, -0.27991089108852585, -0.05350313452372111, 0.13679613484040617, -0.02447266614711181, -0.08993763950811018, -0.15559324104303998, -0.05381450618738262, 0.011700802570882001, -0.07473216327134068, -0.02612396194371407, -0.020124199798232646, 0.08934015827031727, -0.06328116572538729, -0.0007845739928777861, -0.06254998458111172, -0.07073113530108452, -0.16943002247701372, -0.1501048429966076, -0.31787587932279465, -0.3801739997275076, 0.02664037175220134, 0.22967048415737104, 0.27557675942645726, 0.13172312921742682, -0.1302178168362066, -0.27570955483720455, -0.2626923677189034, -0.4080257771153823, -0.5778978639863002, -0.06487001321991155, -0.0015534676576038483, -0.11433218958987125, -0.031175432624520747, -0.019602652368416813, -0.08338717265764418, 0.004367662227537551, -0.007182160020419925, 0.06327068958447636, 0.031528693013276744, -0.025483623240243565, 0.002641331517545846, 0.03935686240216065, -0.06925096218414831, -0.08322461938732459, -0.10767463821411853, -0.042998396803651556, -0.16085013371759752, -0.1971485867438712, -0.16125090398355202, -0.19074024376353982, -0.18766605950123927, -0.27510095989522004, -0.39036345024436475, -0.3875252036462037, -0.5603194108484569, -0.514839721185127, -0.30395677151677386, -0.21784595686691105, -0.115138547631658, -0.08700197202341338, -0.002595791908305197, -0.020441457449424678, -0.05845245806401757, 0.01913433510143344, -0.034677391724095764, 0.00970054548896327, -0.013279111693097118, -0.015427165842590207, -0.0397104072778607, 0.006065357835986389, 0.005122568660855736, 0.031384732384158634, -0.017746501863482148, -0.02311081663606669, 0.020912129431663092, 0.027918606786919563, 0.0017615632283398243, -0.0828244130475656, -0.09387937371263301, -0.08333837444705912, -0.16878761156365504, -0.22141148923750784, -0.09682428551768416, -0.12027208732484991, 0.014365254314079128, 0.003370708009977248, 0.05658243168903455, -0.02902662540134454, -0.006108034519391984, -0.025248343037743655, -0.04607561230481779, 0.04340044418541247, -0.009665645198001806, 0.018403247216355365, -0.09006781614196854, -0.0030218556813808783, -0.11892797969274262, -0.01461960124600227, -0.00039930117641329615, 0.02299809877254822, -0.036106209123998305, 0.036165460474711676, 0.0023804667166299723, -0.052922736757911704, 0.037892376709253876, 0.004680145055266568, 0.024796119126836585, -0.022469294025896196, -0.05748558369709942, 0.04449847842645493, 0.03160627098323571, 0.023180115353416957, -0.017074296415748206, 0.027775228332579515, 0.06147843229042133, -0.07052424988300786, 0.037579072913043195, 0.03986146102802984, -0.0362987596017788, 0.04102411390608251, 0.02517026493447733, -0.03762943455247429, 0.02551562797717135], [-0.022254085010015436, 0.019752633461711692, -0.002833055027826533, -0.012991979262504108, 0.04172683922053815, -0.02251765462576145, 0.008805449653245577, 0.01184140336097385, -0.015201071989317602, -0.06884194167867072, 0.00025511524937673073, 0.016543662299415476, -0.045556517676198914, 0.04100186201635878, 0.0504716751292405, -0.008264481535295265, -0.01838512222555936, -0.06202762423110219, -0.014221724123137564, -0.022637896686214343, -0.04448817298765097, 0.0051838462668404505, 0.015385067948866599, 0.031084070868499715, 0.023510267459182367, 0.0066259606572144445, 0.03240639419791476, 0.02441997634642729, -0.034092848260017704, 0.004070438320849178, -0.01144175935803576, 0.07108794730955743, -0.0341253392361209, -0.02976299661839883, 0.0652691322973857, 0.0413037084024098, 0.03208495112650088, 0.009843325708073171, -0.049192627973343596, -0.035611538342137955, -0.08525652987530502, 0.0063364967512122925, 0.003510017847620482, 0.011145726925376373, -0.016653698457610815, 0.059490773526382865, -0.013350900493812167, 0.023772748546083012, -0.015019565610720776, 0.027350634594212404, 0.0016162236593026957, -0.04240870712267399, 0.010868810749094359, 0.03398750378045804, -0.02421868231438114, 0.008019292029856817, 0.049070585099523986, -0.023598030158260147, -0.04702664124042555, -0.057246264299430596, 0.0228919233694583, 0.052489144159677446, -0.02457308392458608, -0.0016516043286719242, 0.05055128755395746, 0.011317110186591272, -0.026555411742555268, -0.02331919862662155, -0.05518733203699718, -0.12343954224391732, -0.05519932287462615, -0.04576770924354959, -0.0806789435542851, -0.04978600181740596, 0.008389594361172462, -0.009765882147167, 0.07547064813056792, -0.02970419627279817, 0.013371128789729425, 0.03369441692255726, -0.016955342301644756, 0.01946998692350895, 0.022951970093140685, -0.009797922474446805, -0.07014933587731662, -0.010457246090024627, 0.04078884981679172, -0.031209403509980742, -0.06020980222832194, 0.0002678770339102256, 0.0341914882449529, 0.0020779920122200144, 0.09668743347489864, 0.021630958405455137, 0.06773716019496939, 0.02397140194720984, -0.04246292000336629, -0.025751523019858176, -0.09549312172783717, -0.03413128604245899, -0.021799253076144016, -0.10049244165923354, -0.09876556902129865, -0.12093787853836965, -0.011461434621476889, -0.05569699039476206, -0.0032049271194825786, -0.07157716687057301, -0.0312732631838106, 0.01910607625228091, -0.04057204284355129, 0.041416231890331834, -0.00041748266881097253, -9.555622230780405e-05, 0.025680055475747945, 0.01514149754582464, -0.0408924254623385, 0.02552887534938171, 0.1414804936801004, 0.1345705399443306, 0.21809792272387934, 0.05415593128764539, 0.03271369257762851, -0.015658539927688075, -0.2724672786805655, -0.4050836391730573, -0.5084828856500399, -0.27775306538898553, -0.3611617549583701, -0.3689944869131172, -0.3599562502396059, -0.12806367790868325, -0.19521731083279678, -0.10777215282962727, -0.05696718065786856, -0.004655937112717787, -0.0031392988655072978, -0.010952143676534033, 0.010895110937921462, -0.01963516636924026, -0.004755172537477248, 0.019496225840774466, -0.02555408215358827, 0.004577564973382091, 0.10169865605013953, 0.04521971316746778, 0.13324263142371756, 0.1688084711470839, -0.11516551537472001, -0.10666863821134213, -0.1320230700664508, 0.06314302346289287, -0.19587845871439005, -0.6202500809078292, -0.7864358512469338, -0.6240188985589205, -0.698355149351879, -0.7310782859108362, -0.4554786224966559, -0.28341363735959035, -0.2921695233892043, -0.2995274422905703, -0.3348979570974856, -0.2554276858975083, -0.07933486887464908, 0.03163011805689612, 0.010911092265684097, -0.0045450486960897174, 0.04195717139754619, -0.01213525286976188, -0.008482489962370995, 0.020111111406327584, 0.08962548867093584, 0.011936351087587997, 0.09962404792812224, -0.027339332210868973, -0.019778476092295796, 0.2617961728084071, -0.09541149251464393, 0.19715397504145687, -0.053644149271336344, 0.318136029405059, 0.642593429887774, 0.35174681386531303, -0.005231030826627863, -0.06231305983233327, -0.2484421626879911, -0.707890112347492, -0.5026336225229682, -0.5309292133285385, -0.48378558612504385, -0.3344375557148905, -0.01861430196215938, -0.0219397220664859, -0.019237957964965142, -0.07667441966209881, 0.027967005603914696, 0.008221151879296878, -0.03096481909627178, 0.06914554638168657, 0.212322642234222, -0.001922376738007479, 0.11875648910761724, -0.1600803105721221, 0.11629724328303641, -0.15628686089806446, 0.2559456255703843, 0.3513098140327051, 0.5657683395374061, 0.7880598230489163, 0.6495349678437513, 0.2545960373709499, -0.3354612483360726, -0.32189184541388005, -0.36647968042078044, -0.639161038538975, -0.5971924844683563, -0.6172591856265921, -0.510340799353355, -0.43580185563957907, -0.10819711074666907, -0.029855855063543706, -0.06115955758440713, -0.022552619543593312, -0.04481775466428882, -0.01927377471952248, 0.037453375720063624, 0.07991058777113544, 0.3759931370134954, 0.0753565276643397, 0.021280903854019997, -0.18409730936258362, 0.295263137742033, 0.11143741300432142, 0.4218003918691849, 0.694991277212244, 0.614826454944751, 0.7144360752040098, 0.4212160980696234, -0.5369851705740468, -0.5176671211110868, 0.06320271432791705, 0.10536815284579397, -0.37833062631684333, -0.6667709155379566, -0.25908149853312623, -0.1951793780824494, -0.2449245321351894, -0.12691012405220545, -0.03336131332486159, -0.03713854664638545, -0.05707419239692818, 0.010130280285143388, -0.04305055914717341, 0.030979371917884115, 0.2194188325731771, 0.22372066364541948, 0.06570842163712673, 0.24679193282038034, 0.15765317266915846, 0.25685144747955974, 0.722194529535109, 0.6560669028949441, 0.680704075097829, 0.5403618706792864, 0.6683306843529977, 0.3351536095080028, -0.056943653200675154, -0.041319527572857784, 0.3355986517339042, 0.21367916376155113, -0.2489371826864201, -0.3620793002923677, -0.25133992050582965, -0.01276244244676962, -0.17553934967004906, -0.07828067092582348, -0.05610439144768859, -0.06136760238681443, -0.01477967116020614, -0.033284609387177796, -0.010832894097229375, 0.04120728793520082, 0.22113695005511558, 0.07304470418368758, 0.10756957934850826, 0.33906177391778763, 0.14104359152663926, 0.40856563115093025, 0.3307517614875038, 0.49278427202017416, 0.4460160855131883, -0.22203541012361716, 0.08538082201731387, 0.29234254022707973, 0.36956714735057516, 0.8986922081774796, 0.7103562658160222, -0.056712099445584835, -0.12864597988139584, 0.3040887871768429, -0.021489311856918894, 0.06957677260560849, -0.10280653706392526, -0.16416464364900835, -0.013909768732611174, -0.02255613959511697, 0.02879668253780675, -0.011461039529807192, 0.019467031091173165, 0.042872473522869575, 0.15121847529087304, 0.1143114304973054, 0.2106871976950139, 0.3169567053985725, 0.25872647786071884, 0.026598147216098704, 0.2982798996632516, 0.1766631033375023, 0.26493124394374756, -0.06209638897363995, 0.08942026630877986, 0.0455813038357962, 0.7467890404132593, 0.872210394211197, 0.5411735217986753, 0.11620164603514822, 0.2085515889505971, 0.5531347448138604, 0.0939652577753349, -0.10960339538481767, -0.1529402488994429, -0.11019175285449506, -0.028616342776443784, 0.0420302025471854, -0.014445798490212044, -0.06614812836113203, -0.05268877873321714, -0.024534582433132085, -0.04077799056848852, 0.20536843769600424, 0.4163469919314144, 0.04674924774955925, 0.174506879939437, -0.10934823594969345, -0.0585357362433071, -0.6750733115289979, -0.3159035800542098, -0.58194105234175, -0.20518557482634925, -0.05854810851582782, 0.17867497054516365, -0.02825280530038296, 0.28510160305327104, -0.15958749549789816, 0.05078904365317869, 0.2823211258817045, 0.009337233312750756, -0.18947807082894286, -0.1670079241225815, -0.2318405777847896, -0.017969610135921136, 0.04263159651723091, -0.052342081390301436, -0.0646043566837957, 0.02932965136169296, 0.07394948268260387, -0.008261555625579127, 0.17329225918374752, -0.18716334617867025, -0.45609987992138884, -0.000733475025264381, -0.21286689967019026, -0.28399764763201174, -0.5513888008508395, -0.47786927426589365, -0.5615712737837179, -0.46495561642783595, -0.25731108601165564, -0.6949651496464001, -0.39435343376064186, -0.004348210782864559, -0.14549182735384728, 0.06632362460329475, -0.03934781172578446, -0.05722655995298678, -0.32208525052279885, -0.39595078164225544, -0.2355425116780484, -0.05218421610729958, -0.024957623952999622, -0.027910287295481163, -0.05955077670739243, 0.04149680711965511, 0.0672900909376085, 0.03351601376427767, 0.04266807959296623, -0.6585821133752133, -0.7984447368622066, -0.28254287785009174, -0.39198925504772536, -0.3295829728823357, -0.4143165929401325, -0.1700717632334966, -0.23575856414412086, -0.34953230156849074, -0.4986780546486953, -0.48446695021382563, -0.2286023085350593, -0.18396067562324128, 0.09302802373757285, 0.2556304924638456, 0.060233004872624354, 0.24660680074123417, -0.12486191616355456, -0.3080186116575023, -0.2263058045879138, -0.10153144948998696, 0.01608574701455473, 0.02054206403543588, 0.0028093737105108715, 0.056455108668046414, 0.014218790261759765, 0.02173020818201578, -0.029214712345113594, -0.28111227085095797, -0.5292048808843068, -0.5190712750315348, -0.31654100532872975, -0.33267044673444596, -0.4819058164385418, -0.09969305357647187, 0.1467529321319015, -0.49099151713312855, -0.05789660648433217, -0.3228681571943041, -0.26775410021037555, -0.09108157400652021, -0.028472592921653633, 0.24681565043403603, 0.2242486898173458, 0.4296857025407332, 0.042969360926961325, -0.17536973467941683, -0.08338691205427949, -0.07200223552562394, -0.1621672141845691, 0.04390714135663044, -0.006365254624604945, 0.08136750294966623, -0.005382126473629631, 0.05506218641996766, -0.049553779854457226, -0.17061103584168072, -0.27616935914872887, -0.2659554482326154, -0.28223555379275367, -0.397500482265761, -0.0558941927090567, 0.05329549006722266, 0.06257240521251578, 0.045039658857948965, -0.39044175495174405, -0.47729905370507836, -0.46068772407085085, -0.09989634210662168, -0.28332054392716227, -0.18762429622219068, -0.14194958343597813, 0.2475194529650334, 0.3275103046645153, -0.03278828505843141, -0.1302618172268308, -0.08401790711251922, -0.08749344988507997, -0.028096482491962775, 0.04061733539514294, 0.075462741401128, -0.021110477521507156, 0.09379967370493701, -0.17576920314511696, -0.25547257340980006, -0.18286150145752048, 0.18223243411642276, -0.22483156627506823, -0.32528136434466803, -0.11633165913191072, 0.02982032399747762, 0.4138595854357657, -0.11651205780024085, -0.41132591532123547, -0.21903362486143546, -0.39736660092122766, -0.362180720107152, -0.379029435192285, 0.029701054208869267, -0.30273351124836967, 0.055537165143905075, 0.017063707788440317, -0.043834903391461746, -0.109559721486929, 0.009860700661432333, -0.026053978065105694, -0.008787870975836588, -0.019567420909931847, 0.039032018335421734, 0.009886915885876256, 0.14863250126892819, 0.02763551018155977, -0.011818455848609938, -0.030979858658743156, -0.023757075886629692, -0.2723993697104558, -0.30446358677528007, -0.3198555924649936, -0.06787235436429316, 0.1202618090288389, -0.31528539119600224, -0.48901644202837036, -0.2415685479092757, -0.4938847357972218, -0.3040080000152054, -0.27362648052611277, 0.34028927484624477, 0.10464951639692986, 0.10407299051476313, 0.28167322036544135, 0.08688734665152614, -0.045485259748359284, 0.02163019364972055, -0.005126936927480878, 0.04209688492933392, 0.06433565832152155, -0.0030097072952774387, 0.010384067256388727, -0.024600185493812255, 0.05043056616245782, 